374 256
</s> 0.001564 0.001726 -0.001496 -0.001280 0.000534 0.001180 0.000368 0.000083 -0.001408 0.000867 -0.001702 0.000488 -0.000293 -0.000374 -0.001295 -0.000735 0.001008 0.001182 0.001160 0.000624 0.000603 -0.001485 -0.001600 0.001941 0.001485 0.001207 -0.000236 0.001569 -0.000193 0.000287 -0.000058 -0.001165 0.000513 -0.000522 -0.001494 0.001857 0.001711 -0.000428 -0.000088 0.000199 -0.001421 -0.001565 0.001779 0.000025 -0.001009 -0.001188 -0.001202 0.000663 0.000079 0.000520 -0.001646 -0.001487 -0.000051 0.000447 0.000996 -0.001238 0.001594 0.000362 0.000437 -0.000238 0.001167 -0.000894 -0.000819 0.000843 -0.000294 0.000403 0.000705 -0.001597 -0.000775 0.001138 0.001653 0.001536 -0.001190 -0.000823 -0.000355 0.000782 -0.001480 0.001171 0.001089 -0.000625 -0.000606 -0.000874 0.001652 0.001528 -0.000461 0.001646 0.001883 0.000709 0.001946 -0.001215 -0.000598 -0.000823 -0.001136 0.001100 0.000617 0.000166 -0.000857 0.000595 0.001195 0.000076 0.000890 -0.001935 0.001686 0.000187 -0.000715 -0.000814 -0.000292 -0.001146 -0.001707 -0.001108 0.001671 -0.000691 -0.001047 0.000905 -0.000666 0.001858 -0.000627 -0.001792 0.001061 -0.000029 -0.001363 0.000381 0.000563 -0.000188 0.000713 -0.001546 0.000344 0.000710 -0.001175 0.000055 -0.000024 -0.000937 -0.001107 -0.001833 0.000009 0.000060 0.000004 -0.001537 -0.001938 -0.001854 -0.001690 -0.000214 0.000543 0.000463 -0.001243 0.001952 -0.000786 -0.000498 -0.000549 0.001849 -0.001470 0.000454 -0.000522 0.001245 0.000016 0.001668 -0.001101 -0.001018 -0.001638 -0.001432 -0.001250 -0.001217 0.000955 -0.000729 0.001047 0.001441 0.000530 0.001153 0.000967 0.000914 -0.001387 -0.001341 -0.001428 -0.000052 0.001613 -0.001069 -0.001195 -0.001639 0.001291 -0.001632 -0.000226 0.000851 -0.001804 -0.001749 0.000564 0.001377 0.001666 0.000838 0.001235 -0.001222 -0.001422 0.001553 -0.001080 0.000685 0.000224 0.000699 -0.000462 0.000078 -0.000659 -0.000440 -0.001732 -0.001273 0.001361 0.000393 -0.000923 -0.000622 0.000975 -0.001380 -0.000904 0.001849 0.001660 -0.001547 0.000340 -0.000879 0.000059 0.001175 0.001893 0.000776 0.001607 0.001229 -0.000090 0.001748 0.000991 0.001852 -0.000666 0.001854 0.001691 -0.000558 -0.001726 0.001888 0.000350 -0.000812 -0.000280 -0.000287 -0.001505 -0.000559 -0.000173 -0.001925 -0.001373 -0.000470 -0.000368 0.000699 0.000319 -0.000240 0.001151 0.000565 0.000214 0.001413 -0.000440 -0.000557 -0.000162 -0.001065 -0.001172 0.000079 0.001695 -0.000534 
. 0.096920 -0.043654 0.120759 -0.090196 0.095922 -0.163426 -0.109664 0.004485 0.061608 -0.110949 0.088872 -0.089972 -0.014063 0.107562 0.045259 0.043867 0.153874 0.049072 0.127694 -0.244848 -0.006475 0.116074 -0.003231 -0.045817 0.098109 0.041262 0.069127 -0.044058 0.079983 0.009500 0.106337 -0.038833 0.081883 0.033854 0.017194 0.018228 0.001855 -0.031996 0.044755 0.030354 -0.006204 -0.051324 -0.065126 -0.015536 0.000246 0.150788 0.066382 0.007422 0.106237 -0.150144 -0.058439 -0.019152 -0.025247 0.107351 0.004202 0.021496 -0.055041 0.041447 0.006308 0.086662 -0.019681 0.021399 -0.014560 -0.087440 -0.179933 0.021564 -0.086644 0.004699 0.029106 -0.140682 0.099783 0.159718 0.026990 0.073385 0.011788 -0.078394 -0.044221 0.105009 -0.024026 -0.003361 -0.071571 -0.094574 0.284247 -0.041541 0.177664 -0.021361 -0.093034 0.071763 0.213935 -0.152072 0.042385 0.034423 0.079311 -0.104042 -0.009593 -0.056375 -0.091470 0.040359 -0.031612 0.021067 -0.047703 0.052383 -0.084725 0.015542 0.112523 0.023908 0.052264 -0.028996 0.158586 0.160594 -0.017547 0.100871 0.064995 -0.092367 0.110516 0.027451 0.017438 -0.067326 -0.070314 0.111148 0.011693 0.036080 0.073406 -0.052140 -0.019514 0.090035 -0.054978 -0.101689 0.064276 -0.063067 -0.063358 -0.111695 0.019894 -0.000055 -0.145569 -0.027275 0.055345 0.066358 0.011682 -0.019061 -0.055756 0.012275 0.037457 0.031197 -0.116306 -0.009471 -0.138195 0.158635 0.164926 -0.064900 -0.025839 0.125141 -0.106428 0.072505 0.107335 0.032755 0.092950 0.167807 -0.033252 0.116684 -0.111695 -0.063297 0.161869 0.036847 -0.053601 0.062684 0.109939 -0.129079 0.000468 -0.026814 -0.049729 -0.107783 0.120821 -0.083842 -0.051911 0.088088 0.034461 0.209531 -0.067842 -0.016425 -0.019058 0.184477 -0.041989 -0.021870 -0.133538 0.028676 0.002900 0.035812 -0.020815 -0.063429 -0.015266 -0.001764 0.026758 0.069683 -0.053698 0.072258 -0.038882 -0.015887 -0.056574 -0.038934 0.061352 0.133151 -0.125335 -0.094880 0.059911 0.114792 0.051836 0.039145 -0.124656 0.009613 0.280340 0.147053 0.091281 0.126216 0.027330 -0.144676 0.195606 0.140582 -0.003564 0.128828 -0.028488 -0.070369 0.046209 0.001807 -0.083295 -0.141484 0.096585 -0.116252 -0.053109 0.103292 -0.014291 -0.001663 0.165076 0.092932 -0.047840 -0.028053 -0.153947 -0.033132 0.059815 0.074716 -0.004243 -0.082544 -0.020560 0.011936 0.070862 0.219051 0.016418 0.059103 0.056970 0.018173 0.069023 0.048349 0.006111 -0.020471 0.084953 0.013056 
the -0.186339 -0.092518 0.074270 0.097721 0.266049 0.077058 -0.125037 0.016507 0.079401 -0.040603 0.133757 -0.021363 0.073453 0.037377 -0.015827 0.190678 0.052124 -0.007775 0.110162 -0.047439 0.152984 -0.048669 -0.080122 -0.025653 0.035381 0.236678 0.028718 -0.153990 0.142642 0.033943 0.025348 0.169974 0.103188 0.071720 0.022672 -0.086978 0.046215 -0.175858 -0.109538 -0.063410 -0.063665 0.011434 0.056467 -0.050293 -0.095244 0.118134 -0.090277 0.005315 -0.060771 0.049094 -0.135978 0.084466 -0.089004 -0.145994 0.008000 0.032958 0.160881 0.099520 0.061792 0.142555 0.108276 0.058351 0.144454 0.104857 -0.089599 0.066117 -0.214290 0.004610 -0.003154 0.031596 -0.074980 0.129904 0.210253 -0.037653 -0.071581 -0.011684 0.063408 0.147086 -0.070296 0.136886 -0.079247 0.087484 0.217454 -0.027745 -0.137007 -0.106003 -0.036899 -0.099572 0.226914 -0.149168 -0.148235 0.021891 -0.032202 0.049235 -0.111259 0.010962 0.020632 0.019249 -0.186806 0.038636 -0.159490 0.207091 0.018042 -0.071111 0.062465 0.152793 0.006262 0.123006 -0.000507 0.159487 0.018920 0.002864 0.141091 0.058059 0.037221 0.217528 -0.198263 0.062125 0.069558 0.085446 0.056589 0.102291 0.084487 0.029370 0.185296 0.192122 0.083580 0.077295 -0.026197 0.072800 -0.168120 0.108782 -0.127844 0.139703 -0.041012 0.044195 0.140784 0.164441 0.123327 0.020088 0.053355 0.016684 -0.177432 -0.087854 -0.043831 -0.013383 -0.060113 0.044505 -0.195016 -0.097667 -0.095472 -0.090203 -0.069714 0.217539 0.057502 -0.119286 0.004550 0.000936 -0.003065 0.161167 -0.048484 0.039764 -0.089163 0.031545 -0.138160 0.173126 0.028632 0.084890 0.050114 -0.238426 0.044246 0.107991 -0.068283 -0.139338 0.030492 0.082612 0.188112 -0.000748 0.058093 0.088925 -0.106286 -0.060229 -0.016748 0.097583 -0.050608 0.096517 -0.097346 -0.061124 0.134546 0.107099 0.029546 0.016770 -0.039300 0.088093 -0.128109 -0.110413 0.024877 0.053161 0.174450 -0.127375 -0.039936 0.083139 0.099243 0.005320 0.099340 0.078949 -0.022923 -0.006037 0.051551 -0.049989 0.191734 0.160551 0.172162 0.149175 -0.069758 -0.094153 0.181531 0.154450 -0.092955 -0.047749 0.024561 0.045420 0.040264 0.073439 0.059704 -0.092164 -0.102028 -0.019720 0.022277 0.189816 -0.043326 -0.022081 0.051305 0.191783 0.021154 0.160608 -0.136567 -0.013162 -0.092963 0.008024 -0.107497 0.014187 -0.039544 -0.122573 -0.070479 -0.125869 0.022837 -0.028132 -0.166644 0.059344 0.044732 0.063030 -0.156261 -0.195951 -0.081028 -0.180952 
, -0.139186 -0.076828 0.067833 0.019704 0.093747 -0.121873 -0.101132 -0.043072 0.075811 -0.043366 0.083852 -0.244647 -0.023156 0.170772 0.017652 -0.023219 -0.005249 0.078986 0.197728 0.080023 0.159438 0.002647 -0.033839 -0.036156 0.041250 0.192282 0.069180 -0.223950 -0.016284 -0.006000 0.038038 0.029547 0.133312 -0.115227 0.002091 -0.284122 0.164533 -0.171990 -0.134412 -0.035699 0.165861 0.145513 -0.025455 -0.056507 0.010744 0.101920 -0.050398 -0.132619 -0.040838 0.003426 -0.023217 0.056935 -0.019117 -0.209126 -0.116248 0.003787 -0.052645 -0.124238 -0.056712 -0.045297 0.157356 -0.004500 0.156278 0.012987 -0.134732 -0.021006 0.132933 -0.107975 -0.056618 -0.072652 0.003818 0.251119 0.102663 -0.092064 -0.075204 -0.222850 0.144652 -0.126096 0.016776 0.035433 0.018236 -0.063926 0.233127 -0.159839 -0.059723 -0.151781 -0.019122 0.002348 0.136206 -0.061786 0.149279 0.108524 0.022558 0.137096 0.136322 -0.025234 0.046816 0.003178 -0.002836 0.085087 -0.064928 0.200583 -0.034904 -0.045648 0.095966 -0.019057 -0.017000 -0.060587 -0.014890 0.093110 -0.106973 -0.011575 0.017755 0.074297 0.196945 0.113963 -0.209427 -0.012747 -0.070274 -0.030370 0.095131 -0.090251 0.046919 -0.128227 0.341431 0.085054 -0.006739 -0.010235 0.150023 0.123522 -0.053677 0.101354 -0.071893 0.007539 0.016324 -0.071507 0.057408 0.000702 0.056076 0.059682 0.110225 0.160340 0.092820 0.019767 -0.027063 0.021427 -0.137474 0.056366 -0.058412 -0.060552 -0.014080 -0.080595 -0.124676 0.223739 -0.002513 -0.108482 0.027214 -0.137728 -0.187605 0.057766 0.073846 -0.017111 0.032925 0.159797 0.042238 0.050814 -0.058863 -0.078458 -0.110756 -0.146200 -0.039764 -0.120502 0.035749 -0.119135 -0.095566 0.034458 0.076594 0.082212 0.046840 0.075398 -0.109114 -0.055832 0.026618 0.186999 -0.092547 -0.002276 -0.033213 -0.029892 0.188813 -0.097585 0.136867 0.119250 -0.143283 0.004948 -0.011133 -0.018551 0.056468 0.180596 0.054152 -0.190248 -0.061484 -0.009694 0.078542 -0.249974 -0.039361 0.136187 0.029003 0.082761 0.012840 0.003862 0.222150 -0.035210 0.178344 0.148868 0.069144 -0.021143 0.124987 0.163660 -0.143278 -0.024590 -0.042478 0.305341 -0.000184 0.042652 0.038396 0.060866 -0.008940 0.129921 0.026489 0.146720 -0.056409 0.095869 -0.071611 -0.064685 -0.075493 0.038818 0.085815 0.159475 -0.045757 0.114078 -0.031810 0.061112 -0.226794 -0.065170 -0.025260 -0.196099 -0.011062 -0.097081 0.090773 0.188079 -0.101806 -0.043854 -0.213999 -0.202174 -0.138732 -0.061767 
in -0.084970 -0.030734 -0.059002 0.102694 0.139643 0.096650 -0.028507 -0.027318 0.138748 -0.023331 0.080116 -0.080101 0.279480 0.034477 -0.047754 0.122696 0.084858 0.033159 0.133199 -0.150584 -0.193671 0.034990 -0.107802 0.170867 0.135528 0.198165 0.181743 -0.049066 0.058155 0.005004 -0.098342 -0.030615 -0.075694 0.153591 0.021705 0.073915 -0.052261 -0.081490 -0.036756 -0.050909 -0.146603 -0.169417 -0.050856 0.046958 -0.009006 0.078835 0.057765 -0.046268 0.054511 -0.199779 -0.112767 0.140973 -0.227585 -0.035071 0.079176 -0.133221 0.104993 0.065369 -0.014237 0.143619 0.302275 0.046202 -0.018303 -0.054421 0.118961 -0.007362 -0.087079 0.058051 0.070292 0.079074 -0.088846 0.207541 0.064957 -0.075539 0.057182 0.053775 -0.010515 0.089946 0.087944 0.077297 -0.151766 0.016805 0.064999 0.179611 -0.071329 -0.055356 -0.210138 0.029364 0.219959 -0.213800 0.126496 -0.077533 -0.016949 -0.160055 -0.092362 0.079262 0.016643 0.123514 0.043168 0.056802 -0.184554 0.138882 -0.006323 -0.048141 -0.093649 -0.165523 0.162508 0.049145 0.072991 0.159815 -0.001375 0.071896 0.027141 -0.078335 -0.034932 0.182747 0.087082 0.099709 0.038861 0.098615 -0.236388 0.034557 0.007926 0.093781 0.148078 0.089725 -0.003123 -0.079093 0.055145 -0.181314 0.009334 0.125556 -0.014936 0.139750 -0.028148 -0.002563 -0.197541 0.060432 0.036518 -0.036054 -0.033819 0.002505 0.025266 -0.067361 -0.022456 0.037051 -0.048544 -0.144620 -0.106474 0.016493 -0.086623 -0.097982 -0.022594 0.188634 0.025849 -0.033351 -0.014606 0.110728 0.117318 0.071872 -0.016325 0.046007 0.031910 -0.006870 -0.228386 0.006114 0.062928 0.136859 0.090376 0.050315 -0.002940 0.052206 -0.037737 0.094598 0.013549 0.027561 0.043479 0.214958 0.017533 0.060441 -0.110218 -0.003499 -0.042085 -0.199633 -0.017801 0.229294 0.000272 0.056957 0.292991 0.130556 0.202706 -0.001281 0.058173 -0.117830 0.050093 -0.108375 -0.131636 0.008952 0.102032 -0.124257 0.341835 0.008616 -0.040377 -0.084470 0.070780 0.051077 0.114979 0.059781 -0.044198 0.063035 0.073838 0.187982 -0.067193 0.007930 0.122047 0.131262 0.190279 0.163802 -0.086890 0.024302 -0.007122 -0.015034 -0.027997 0.096697 0.109951 -0.141374 0.225432 -0.098037 -0.000700 0.127899 -0.014909 -0.150541 0.047611 0.175735 -0.039759 0.074208 -0.189035 -0.229422 0.000490 0.074747 -0.032430 -0.143217 -0.012862 -0.269832 -0.024764 -0.037707 0.118733 0.188259 -0.052588 -0.055886 0.118697 0.115112 -0.190371 -0.015617 -0.032919 -0.055075 
of -0.072609 0.006179 -0.101101 -0.078397 0.049892 -0.182472 -0.026067 -0.196929 -0.076288 0.002066 0.029104 -0.146487 0.169068 0.053314 0.015656 0.040104 0.131253 0.162528 0.300643 0.108714 0.091362 -0.087936 -0.038080 0.086119 0.152522 0.239502 -0.105021 -0.215177 0.003441 -0.078391 -0.014529 0.077897 -0.020997 0.058339 0.005507 -0.015932 -0.084713 -0.264694 -0.058568 0.035268 -0.175236 0.195863 0.112470 -0.011024 -0.077847 -0.014404 -0.025012 -0.017025 -0.215946 0.006462 -0.116876 0.060758 -0.087132 -0.165279 -0.005626 0.113794 -0.017120 -0.187952 0.035534 -0.187904 0.124005 0.166158 0.074296 0.092998 0.009442 0.167415 0.112244 0.020611 -0.091240 -0.109454 0.029424 0.262147 -0.005823 0.021037 -0.033229 -0.054866 -0.106980 -0.091262 -0.041489 0.068882 -0.065166 -0.196495 0.173920 -0.063319 -0.140741 -0.089773 -0.010957 -0.025001 0.236464 -0.042792 0.158533 0.058854 0.076435 -0.076160 -0.070466 -0.034971 -0.053871 0.195528 0.036931 0.127050 -0.270006 0.254140 -0.130439 0.025977 -0.017935 0.109279 -0.150940 0.175278 0.045576 -0.044634 -0.027303 0.117973 0.220684 0.036887 0.136876 0.182311 0.178334 -0.091832 0.002042 -0.092951 -0.060610 -0.196889 0.034667 -0.138923 0.293471 0.111652 0.022131 0.054666 -0.032096 0.031222 -0.051442 0.010683 -0.087912 0.041296 -0.102647 -0.149534 0.013962 0.121124 0.032445 -0.120741 -0.125695 0.005802 -0.070216 0.098050 0.117713 0.121990 -0.069675 -0.032958 -0.124258 -0.144840 -0.036106 -0.050987 -0.208803 0.228565 -0.020863 -0.204585 0.104271 0.173397 -0.049895 -0.000982 0.079579 0.019091 -0.192498 -0.000150 -0.193562 0.120848 -0.067740 0.125073 0.193200 -0.135322 -0.096723 0.058833 -0.155702 -0.150278 -0.044070 -0.047870 0.308954 0.005918 0.150813 0.056512 0.146033 0.043763 0.087150 0.096771 -0.032523 -0.007710 -0.140729 0.142746 0.123973 0.114010 0.041177 0.019303 -0.134904 0.209613 0.077190 -0.163342 -0.002846 0.105474 -0.131478 -0.176929 -0.064461 -0.021533 -0.082792 -0.162127 0.051477 0.151038 -0.102587 -0.073416 0.013377 0.124432 0.182870 -0.098966 0.014975 0.183123 0.128516 0.116775 0.215524 0.098134 -0.062317 -0.140172 0.035103 0.022270 -0.063358 -0.099455 -0.044218 -0.138814 -0.134599 0.075558 -0.023493 0.241284 -0.052198 0.085018 0.125195 0.035200 -0.108864 0.165324 -0.016034 0.077277 -0.077309 0.090823 -0.183555 0.003906 -0.102662 -0.124534 -0.083848 -0.070954 0.044909 -0.047713 -0.042918 0.189075 0.002825 -0.041959 -0.109553 -0.061649 -0.065606 -0.017909 
to -0.024296 -0.004788 0.103444 -0.144396 -0.046766 -0.131575 0.030097 -0.095715 0.046468 -0.171750 -0.020644 0.004609 0.204710 0.216459 0.013317 0.136922 0.079841 -0.126625 0.266958 0.013354 -0.209088 -0.060820 -0.063177 -0.070082 0.117984 0.204852 -0.098599 0.008671 -0.105568 0.138810 0.078785 -0.090512 -0.037365 -0.221244 0.074928 -0.125116 0.170828 -0.119190 0.038537 0.027777 -0.110462 0.112475 -0.094414 -0.067868 -0.058458 0.026420 0.085674 -0.008860 0.008153 -0.122548 -0.070798 0.202430 0.078289 0.046535 0.053796 0.224313 -0.011621 -0.008424 -0.092620 0.009628 -0.007725 -0.144096 -0.034093 0.075811 -0.061357 0.094892 -0.016522 -0.161248 -0.106706 -0.078121 0.063512 0.160004 -0.015218 0.015417 -0.009774 0.106604 0.086275 -0.075189 0.127653 -0.131242 0.126745 0.104940 0.140448 0.022660 0.112451 -0.166186 -0.177763 0.032138 0.184055 -0.010352 -0.040238 -0.103876 0.084227 -0.066325 0.133723 -0.035261 0.108095 0.050609 -0.184527 -0.062216 0.063883 0.145962 0.152769 0.023195 0.096408 0.014663 -0.065073 -0.175198 0.126367 0.043946 -0.023325 -0.205856 0.010497 -0.059286 0.160864 0.141400 0.050160 0.057110 0.058580 -0.007334 0.009780 -0.006234 -0.091127 -0.110479 0.246496 -0.097713 -0.023139 0.007433 0.156097 0.049115 -0.185538 -0.009532 -0.142624 0.006722 -0.012068 -0.091107 -0.081440 0.177389 -0.054355 0.100980 0.037036 0.166788 -0.034703 -0.019045 -0.026691 -0.125937 -0.116425 -0.015211 0.089016 -0.064496 -0.069490 -0.101324 0.044096 0.155577 -0.065292 0.044800 0.095465 -0.028487 -0.148499 0.047734 0.047254 -0.011265 -0.120507 0.030159 0.057438 -0.081170 0.062851 -0.083225 -0.033010 -0.134135 0.046452 0.158294 0.038973 0.237216 -0.033331 0.009062 -0.018745 -0.080290 0.089044 0.197736 0.092501 0.058453 -0.030780 -0.044437 0.014744 0.106612 -0.025832 -0.040842 -0.016209 -0.106209 -0.066964 -0.172949 0.185144 0.107131 -0.132452 0.096736 -0.105081 0.056226 -0.118090 -0.178146 0.019508 -0.002790 -0.074548 -0.054627 0.137285 0.119367 0.093166 0.163946 0.064982 -0.108057 0.142107 0.043082 -0.073130 0.051035 0.171892 -0.023089 0.168098 -0.011566 -0.004380 0.061081 -0.194570 0.135127 0.075581 -0.100011 0.093615 0.195269 -0.110825 -0.003420 -0.009434 0.136893 0.086155 -0.043084 0.178450 -0.074846 -0.024928 -0.103680 -0.116522 -0.124555 0.071782 -0.174259 0.084327 -0.044271 -0.091688 0.004322 -0.084266 0.098069 0.142437 -0.058561 0.136218 0.157130 -0.043710 -0.060341 -0.000039 -0.105879 -0.044478 0.183265 
a -0.065060 0.171842 0.091792 -0.056130 0.026467 -0.261044 -0.227398 0.007122 0.007663 -0.146264 0.123242 -0.002975 -0.124067 0.005290 0.171496 0.005194 0.293788 0.151517 0.191862 -0.036032 0.041034 -0.090063 0.048797 -0.035691 0.145711 0.369914 -0.169597 -0.022992 -0.025052 0.163302 0.001745 -0.014457 0.138406 0.027146 -0.001343 0.021498 -0.054249 -0.192857 -0.060145 0.082239 0.116635 0.158071 0.013853 0.059499 -0.087361 0.001463 -0.090215 0.091134 0.163891 0.027710 -0.006723 -0.062737 0.061489 -0.174912 0.026764 0.061456 -0.221910 -0.193937 -0.097371 -0.021625 -0.215956 -0.032082 0.011382 -0.033919 -0.158460 0.065156 0.085478 -0.112868 0.148389 0.040832 0.078182 0.147401 0.027123 0.018066 0.008252 -0.041211 -0.043396 0.091590 -0.027113 0.059083 -0.232143 -0.071381 0.415213 0.013088 -0.069587 0.196118 -0.060426 0.194901 0.171887 -0.144900 -0.173080 0.034902 0.040494 -0.030229 0.082620 -0.056850 0.054543 -0.181384 -0.085793 -0.089178 -0.114158 0.099354 -0.026450 0.063638 0.234316 -0.098245 0.056879 0.029833 0.061050 -0.063724 -0.225860 -0.076279 0.044880 0.150792 0.143291 -0.122238 -0.090782 -0.026843 0.009893 0.002265 0.127489 -0.162209 -0.130361 -0.120714 0.146604 0.099545 0.071095 0.000270 0.042596 0.037488 0.037064 0.047999 -0.030306 -0.142700 -0.219611 -0.039728 -0.003584 -0.150934 0.051176 -0.083962 -0.072644 -0.280922 -0.027314 0.151970 -0.217088 0.019771 -0.184097 0.122206 -0.096359 0.084775 0.057043 0.221846 -0.211784 0.448127 -0.079981 -0.043193 0.040744 0.034514 0.079585 0.025404 0.055390 0.059746 0.064082 0.019806 -0.119231 0.089373 0.191160 -0.219932 -0.061172 -0.010744 -0.027089 -0.075101 0.070929 -0.102012 -0.239332 -0.132998 -0.014423 -0.104864 -0.052597 -0.127837 0.004302 0.024135 -0.128618 0.018648 -0.046227 -0.081613 -0.074319 -0.010781 -0.296716 -0.342697 0.164374 -0.001431 -0.041701 0.166711 -0.076354 0.134247 0.193955 0.092546 -0.084633 0.049822 -0.104705 0.042368 -0.106186 -0.017439 -0.053732 0.041883 -0.007014 0.087722 -0.350411 0.036881 0.425225 -0.163521 -0.010971 0.030458 0.166531 0.037108 0.189675 0.344868 0.051393 -0.023612 -0.031623 -0.062749 -0.193203 -0.085418 -0.281917 0.079355 0.015498 -0.194745 -0.008302 0.092185 0.044480 0.074703 0.240871 0.087351 0.047100 0.048161 0.148918 -0.030642 -0.089815 -0.038066 0.077459 0.084337 -0.200471 0.335888 0.144313 -0.103330 -0.107651 -0.211894 0.189148 0.170032 -0.074152 -0.069426 -0.056226 -0.062953 -0.140593 0.025018 
and 0.032636 -0.198666 -0.003715 -0.003453 0.090932 -0.181569 -0.129241 0.059009 -0.056597 -0.053827 -0.077175 -0.150112 0.009814 0.053368 0.051478 0.011982 -0.150995 0.053930 0.210205 -0.109150 -0.008699 0.141484 -0.321035 -0.010176 0.085719 0.316349 0.120885 -0.119630 0.020796 -0.101860 -0.149504 -0.106531 -0.062393 -0.075946 -0.109982 -0.209651 0.005445 -0.144778 -0.051271 -0.042098 0.220475 0.000256 -0.026268 0.162676 -0.011359 0.258267 0.137695 0.048478 0.148952 -0.216133 -0.186798 0.289210 0.074573 -0.092060 -0.137602 0.007766 0.058351 0.177086 0.016397 0.125531 -0.010196 0.151381 0.171006 0.018832 -0.283468 -0.059139 -0.005649 -0.056460 -0.087179 -0.168141 0.075108 0.275490 -0.042278 -0.030890 0.025113 -0.041752 0.064554 -0.026448 0.096065 -0.145718 0.073666 0.093304 0.394536 -0.198878 0.153701 0.021786 -0.327376 0.152083 0.257731 -0.211132 -0.024988 0.044959 0.077676 0.008065 0.070022 -0.205183 -0.055732 0.150954 -0.047534 0.106468 -0.081948 0.114057 0.009163 -0.056357 0.126304 0.044584 0.099185 0.008516 0.128727 0.180305 0.013284 -0.068306 -0.339081 -0.002722 -0.001325 0.089472 -0.021525 0.065161 -0.142843 0.120249 0.183970 0.196155 0.069806 -0.019011 0.435777 0.076181 -0.207988 0.014546 0.233909 0.094010 -0.110783 0.075422 -0.034154 0.033574 -0.145520 -0.039542 0.084967 0.144542 -0.128366 0.008075 -0.050331 0.026584 -0.003085 -0.189676 -0.031870 -0.136681 -0.192225 0.115314 0.118093 0.016981 -0.231574 0.151689 0.023448 0.471955 0.099056 0.024903 0.112463 0.091425 -0.103168 0.115441 0.129083 -0.109009 0.139541 0.213168 -0.105600 -0.084248 -0.168410 -0.015243 -0.124264 -0.038454 -0.082946 -0.086386 0.177624 0.008250 -0.063757 -0.008541 -0.136597 0.040954 0.192821 0.249431 0.004393 0.137379 -0.025977 0.106632 -0.161878 -0.120990 0.099130 -0.150374 -0.006261 0.118666 0.141567 0.005215 -0.126051 0.107091 -0.029323 -0.038352 -0.039997 -0.013721 -0.024964 -0.180419 -0.094693 0.014977 0.018582 -0.154189 -0.119935 0.262480 0.050634 0.199749 -0.118837 -0.089066 0.366687 0.122569 0.129927 0.216042 0.053973 -0.121039 0.166710 0.292117 0.032981 -0.061080 -0.015006 0.208196 0.123406 0.179484 -0.012194 0.114169 0.170268 0.088804 -0.199171 0.086948 -0.185291 -0.185197 0.034810 -0.103949 -0.064279 0.063127 -0.121668 -0.047502 0.163818 -0.059719 -0.056471 -0.023741 -0.081671 0.165902 -0.118654 0.055522 -0.136435 0.000168 0.043693 0.177644 -0.001704 0.005646 -0.147565 -0.104396 -0.159902 0.074542 
says -0.074505 -0.044323 0.204882 -0.058192 -0.021403 0.138357 0.134436 -0.072807 0.126832 -0.006351 0.199054 0.090056 0.204732 -0.202546 -0.088419 0.274668 0.072403 -0.050476 0.231151 0.002183 -0.159996 0.073886 0.098395 -0.292779 0.014099 0.094464 -0.010875 -0.047534 0.023285 0.111983 -0.003819 0.078934 0.005812 -0.177329 -0.038321 -0.205523 0.050855 -0.135235 0.013100 0.300142 -0.064179 -0.002928 -0.063168 -0.009971 -0.076717 0.094541 -0.338471 0.158993 -0.115212 0.078235 0.020386 -0.002666 0.161218 0.053230 0.132560 0.311099 -0.157832 0.045672 -0.125374 0.047753 -0.293715 -0.075503 0.049119 0.180932 -0.001312 0.213312 -0.080358 -0.155378 -0.140038 0.162634 -0.043588 0.315605 0.224136 -0.044576 -0.037688 0.200090 0.056665 0.141598 -0.153378 0.209604 0.103675 0.126702 0.487006 0.070809 -0.124758 0.111295 0.062074 0.144314 0.285003 -0.196639 -0.080511 0.180699 -0.269135 0.047402 0.010225 -0.097380 -0.160675 -0.064723 -0.164384 0.002491 0.035011 0.050171 0.083437 0.294015 -0.101347 0.147841 0.188912 0.240273 0.009808 0.073138 0.158748 -0.138354 -0.045667 0.141427 0.175970 -0.056286 0.010094 0.031657 0.080742 -0.341423 0.070188 0.062190 -0.114425 -0.105033 0.102494 0.086831 0.161837 0.125261 0.090594 0.161577 -0.278338 0.120635 0.009821 -0.095999 -0.002459 -0.111186 -0.265591 -0.038706 0.265825 0.034060 0.060441 -0.182367 -0.170655 -0.201750 0.054652 -0.008666 -0.171048 -0.123467 -0.149310 0.078051 0.103858 0.128814 -0.146635 0.161833 0.040323 -0.020582 -0.220397 -0.138480 0.045601 0.242543 -0.221788 0.199331 -0.165239 0.129590 -0.059278 -0.127159 0.087879 -0.272027 0.183622 -0.195329 -0.026653 0.266900 -0.002684 0.037311 0.137049 -0.248505 0.037516 -0.210908 0.042546 -0.063754 0.157249 0.187703 -0.110641 0.310704 0.194707 -0.185251 0.008709 -0.074348 -0.279890 -0.027838 -0.160977 -0.181895 0.128385 0.312710 -0.210019 -0.068707 -0.011449 -0.048389 -0.014626 -0.312476 -0.061684 0.010458 0.115041 0.015947 0.221015 -0.050806 -0.192899 0.037021 0.022965 -0.086521 0.505906 0.211980 -0.163365 0.099358 -0.122916 0.103940 0.298204 0.337981 -0.185659 -0.156801 -0.028276 0.269023 0.069451 0.154082 -0.109017 0.137610 -0.116323 0.096610 0.266639 0.070441 0.040806 0.079855 -0.070395 0.104404 -0.049296 -0.039967 -0.083885 -0.086709 -0.230848 -0.156376 0.044131 0.111506 -0.206134 0.052871 0.113010 0.110955 0.026916 0.082299 0.068154 -0.113605 -0.191355 -0.057056 0.042141 -0.242748 -0.196963 0.055407 
for 0.148719 -0.135466 0.257217 -0.009353 -0.004094 -0.015467 0.045602 0.000200 0.028612 -0.006982 0.252955 -0.063365 -0.270203 0.076354 0.022741 0.032048 -0.127513 0.071343 0.192235 0.025652 0.218952 -0.081021 -0.025041 -0.249275 0.239557 -0.055573 0.258705 -0.110203 0.014417 0.017432 0.138728 0.187587 0.127835 -0.169391 0.059349 -0.202540 0.049506 0.055047 -0.001647 -0.079037 -0.007401 0.068198 -0.007783 -0.205978 -0.014324 -0.047729 -0.019251 0.014669 0.103790 -0.020582 0.047315 -0.112995 -0.100490 0.036361 -0.289984 0.041119 0.064668 -0.026884 0.192062 0.037980 0.044254 -0.006265 0.115598 -0.049886 -0.163654 -0.175946 0.027336 -0.034007 -0.014524 -0.121060 -0.002141 0.164719 0.091323 -0.026120 -0.160173 -0.116961 0.327407 -0.067590 -0.030268 0.041584 0.105738 -0.127454 0.387559 -0.400023 0.088234 -0.105345 0.029416 -0.167793 0.354097 0.015308 0.233558 0.229252 0.172829 0.011088 0.044217 0.024791 0.082249 -0.237583 -0.232989 0.024098 0.086200 0.156929 -0.113749 -0.089611 0.058112 0.282267 -0.008372 -0.181973 0.140545 -0.037894 -0.110805 0.171085 0.077019 0.009548 0.185772 0.103447 -0.070280 -0.228521 -0.304567 0.126832 0.135835 -0.016201 0.273702 -0.088550 -0.126769 0.094376 -0.115239 -0.071147 -0.114718 0.112261 -0.151884 -0.149762 0.002891 -0.021387 0.148663 0.014502 0.237197 0.154835 0.206366 0.021328 0.342627 0.259067 -0.012740 -0.064438 0.002677 0.247306 -0.154289 0.273890 0.137046 -0.321703 -0.020365 0.049151 -0.407737 -0.041392 0.151875 -0.104625 0.155234 0.015445 -0.036019 0.131366 -0.170701 0.038045 -0.045829 -0.042678 0.026585 0.157110 -0.012836 0.052088 0.059781 -0.296541 0.191893 -0.205176 0.167005 -0.221760 -0.103055 0.116326 -0.022478 0.112393 -0.149205 -0.072517 -0.066581 0.135444 0.147586 0.036293 -0.194090 -0.087914 0.017468 0.038958 0.063685 -0.055172 0.002483 0.058023 -0.148572 -0.167195 -0.172891 0.026692 0.109636 0.052797 0.108528 0.095115 -0.078239 0.041868 0.033506 -0.028559 0.091711 -0.109306 -0.026932 0.018723 0.261216 0.196530 0.364511 0.028617 0.344044 -0.051618 0.029518 -0.230252 0.308960 0.183956 -0.277969 0.029062 -0.193530 0.073841 0.157060 0.004635 0.170254 0.142811 -0.157224 -0.114228 -0.087443 0.073214 -0.035243 0.068457 -0.028631 0.039725 0.142950 -0.020288 -0.020443 0.314426 -0.004129 0.186323 -0.084997 -0.044187 -0.244291 0.004005 0.139263 0.075023 -0.003978 -0.146498 -0.127941 0.151040 -0.071605 0.124763 0.069735 -0.053397 0.094963 -0.030762 
is -0.071138 -0.056002 -0.101132 -0.073489 0.129913 -0.025981 -0.001551 -0.025746 -0.170931 -0.098734 0.297254 0.030006 0.018192 0.066620 0.019448 -0.131652 -0.070251 -0.103931 0.208507 -0.029969 -0.145357 0.123786 0.142978 -0.079351 0.201096 0.030875 0.060117 -0.019444 -0.030076 -0.017047 0.112978 0.245878 0.076828 0.101696 0.130283 -0.041315 -0.096239 -0.034017 0.106058 0.016808 -0.154115 -0.166406 -0.092879 0.076035 0.174599 -0.138728 -0.142028 0.039564 0.023789 -0.035122 -0.125474 0.046394 -0.124097 0.020171 0.249260 -0.098561 -0.103226 -0.149909 0.028021 -0.123509 -0.014137 0.103503 0.203843 -0.046280 0.140344 0.113178 0.053578 0.068844 -0.149313 0.050996 0.153953 0.218173 -0.090313 0.051463 -0.151538 -0.056830 -0.199037 0.093788 -0.010182 -0.026636 -0.076739 -0.018553 0.538164 0.088284 0.010480 0.005849 0.022820 -0.071318 0.302652 -0.058450 0.006850 0.008163 0.013727 -0.027313 0.128526 -0.191951 0.010022 0.113126 -0.045763 0.230683 -0.058968 0.119274 -0.088773 0.021358 0.137373 0.017217 -0.044485 0.034067 0.114361 -0.153165 0.116560 0.085380 0.003522 0.042629 0.063942 0.059719 0.062291 -0.042954 -0.017145 0.214872 -0.014326 -0.138379 0.033076 -0.150828 -0.105635 0.100749 -0.117834 -0.009293 -0.020788 0.005579 -0.049912 -0.191046 0.044777 -0.223227 -0.065795 -0.038661 -0.010631 0.119970 0.180474 0.104071 -0.196458 0.007623 0.014276 0.102565 -0.029595 0.136111 -0.156170 -0.222011 -0.025245 -0.005277 0.130830 0.010934 -0.288254 0.087539 0.140081 -0.063379 0.014640 0.266426 -0.202568 0.256992 -0.019997 0.074320 0.020635 -0.116628 -0.213035 0.150906 -0.022372 0.090847 0.038236 -0.043626 0.108894 0.034469 0.050867 0.059632 0.151018 0.035380 0.042453 0.297022 0.119403 0.045475 0.004480 0.012198 -0.057187 -0.108897 -0.161396 0.123993 0.096671 0.175614 0.031156 -0.020365 0.210742 0.056868 0.016734 0.167500 -0.004188 -0.003140 -0.078473 0.192827 -0.119181 -0.062303 -0.037824 0.013729 -0.099337 0.001650 0.026710 -0.057759 -0.120933 0.025005 -0.001245 0.102827 0.580786 0.103683 -0.143430 -0.079182 -0.059332 -0.254285 0.362848 0.075618 0.054205 0.046247 -0.054860 -0.110093 0.150666 -0.079777 -0.043344 -0.236237 0.061131 -0.168859 0.016483 0.085532 -0.123034 -0.078642 0.192873 0.150848 0.085683 0.262988 -0.128366 -0.020450 -0.258750 0.139614 -0.222065 0.028151 -0.100867 -0.021561 0.095394 0.026366 -0.102748 0.035395 0.031153 0.040789 0.000795 -0.063655 0.058858 0.052364 -0.079237 -0.043079 
that -0.170935 -0.112037 -0.040769 -0.124212 -0.054629 -0.151726 0.107225 -0.084555 0.082564 0.100973 0.089940 -0.245600 0.176487 0.012311 0.121837 0.099557 0.089042 0.102379 0.170975 -0.180603 0.023757 0.199232 0.097921 -0.038588 0.121967 -0.082736 0.166891 -0.265922 0.189414 0.023008 0.269013 0.082351 0.220968 -0.318601 0.071897 -0.389187 0.230359 0.004300 -0.111316 0.008540 0.150846 -0.091871 -0.050224 -0.172049 0.134720 0.131989 -0.004197 -0.158410 0.103307 -0.290389 -0.120277 -0.163701 -0.007415 -0.194793 -0.111531 -0.188924 0.073309 -0.069002 -0.185783 -0.196274 -0.088057 -0.040005 0.121442 -0.206070 -0.255285 0.208173 0.202777 -0.193594 0.034819 -0.154148 0.099228 0.252394 -0.038743 0.151192 0.139417 -0.250748 0.042548 0.008909 -0.154755 0.101202 0.046035 -0.168814 0.299958 -0.088790 -0.055795 -0.141885 0.133946 -0.024804 0.161607 -0.034287 0.104660 0.180882 -0.076905 0.237007 0.209574 -0.107241 0.033878 0.026403 0.305266 0.060802 0.043627 0.043565 0.095090 -0.004468 0.151877 -0.025462 0.094499 0.097265 0.021250 0.047772 -0.075634 0.037553 -0.152690 -0.038341 0.133847 -0.130642 -0.314286 -0.075535 -0.187046 -0.025694 0.044760 -0.023195 -0.122675 -0.242920 0.185710 -0.055705 0.276572 -0.250553 0.158653 0.091360 -0.010275 0.049809 0.012013 -0.076274 0.032311 -0.155570 -0.134595 -0.132164 -0.087175 0.104904 0.029382 0.059743 0.122450 0.089336 0.068703 0.041959 -0.107750 -0.005800 -0.027796 -0.077562 0.104705 -0.221581 -0.262541 -0.010076 -0.131916 -0.160762 -0.063630 -0.290078 -0.224460 0.157098 -0.041356 -0.010769 0.286744 0.115348 0.103029 0.061626 -0.082953 -0.161608 -0.176940 0.336748 0.175982 0.042306 0.087511 -0.009700 -0.054590 0.113063 -0.130804 0.217784 0.146643 -0.086454 -0.220278 -0.012676 -0.053614 0.070850 -0.008982 -0.051724 0.078273 0.041095 -0.106421 -0.171542 -0.184063 0.075182 -0.096006 0.233528 0.063278 0.119537 0.002786 -0.160598 -0.125962 -0.172302 0.157036 0.085072 -0.161902 -0.258953 0.254614 -0.027555 -0.222306 0.153798 0.166837 0.007345 0.282195 0.122280 -0.056331 0.189872 -0.077730 -0.189914 0.126071 0.176532 0.060579 0.114751 0.236901 0.412539 0.026932 0.141202 0.036494 0.134929 0.335024 0.138211 0.175134 0.076630 -0.136357 0.012803 -0.175208 -0.150976 0.151062 0.211135 0.074249 0.221352 0.002647 0.147506 -0.034227 -0.167516 -0.106795 0.201877 0.196439 -0.167407 -0.141809 0.128915 -0.038890 0.101775 -0.141149 -0.022220 -0.119804 -0.160526 -0.274827 0.134939 
on 0.195429 0.071669 0.151593 -0.035046 0.153673 -0.063349 -0.222144 -0.076291 0.130123 -0.136497 0.111900 -0.173206 0.038829 0.095250 0.024437 0.027519 0.298367 0.194025 0.246220 -0.182903 0.134973 -0.067002 0.048055 -0.021513 0.192662 0.076949 -0.046747 -0.035282 0.042129 0.234487 0.071487 -0.120997 0.105709 0.099735 -0.015798 0.023635 0.095197 -0.006026 0.081547 0.002138 -0.169251 0.075052 -0.023296 -0.057448 -0.137631 0.256615 0.106509 -0.075230 -0.066109 -0.092496 -0.030930 -0.139644 -0.122812 0.048007 -0.062360 0.209316 -0.118820 0.010825 0.138330 0.064767 -0.010417 -0.168852 -0.199208 -0.061077 -0.185551 -0.009380 -0.070813 -0.008444 0.050708 -0.064621 -0.037832 0.253442 0.185218 0.088135 0.064794 -0.018091 0.092656 0.086554 -0.094088 -0.085444 -0.031175 -0.125678 0.102531 0.006374 0.218074 -0.152568 -0.079182 0.081148 0.363883 -0.153236 -0.030691 0.138186 0.013066 -0.339472 -0.225707 0.112271 -0.037579 -0.038780 -0.209969 0.039029 -0.212714 0.114602 -0.156027 -0.005935 0.011901 -0.010729 0.024661 -0.151850 0.073123 0.263817 -0.028311 0.164307 0.272340 -0.170089 0.170427 -0.099462 -0.146195 0.059196 -0.024855 0.026167 -0.030504 -0.011701 0.220708 -0.064672 -0.093784 0.219996 0.078882 -0.145121 0.155270 -0.114600 -0.193142 -0.031738 -0.071804 0.177214 -0.137767 -0.063434 0.188533 0.019556 0.029907 -0.093367 0.066210 0.003012 -0.020123 0.010423 -0.145958 -0.215722 -0.138121 0.211587 0.171980 -0.227749 0.019907 0.135565 -0.234162 0.087512 0.079949 0.012246 0.040745 0.135586 0.108842 0.071846 -0.138142 -0.082773 -0.065906 -0.148633 -0.103620 0.047806 0.255614 -0.219744 0.115204 -0.098053 -0.144243 -0.121587 -0.048138 -0.238063 -0.058028 0.034288 0.216467 0.096355 -0.123026 -0.197192 -0.102705 0.106012 0.004713 -0.018078 -0.090759 0.041307 -0.057543 0.057938 -0.006994 -0.066803 -0.315731 0.122264 0.100592 -0.053595 -0.105773 0.066652 -0.000497 -0.001608 0.157198 -0.057277 0.020055 0.080658 -0.115125 -0.197894 0.183246 0.122081 0.204573 -0.036758 -0.113906 -0.222283 0.109759 0.150072 0.240768 0.054697 0.159371 0.031475 0.342615 0.181448 -0.082265 0.051306 -0.119248 -0.165153 -0.058471 -0.075255 -0.059919 -0.170122 -0.126050 -0.244382 -0.003997 0.167188 0.142473 0.085871 0.134873 0.149020 -0.175348 -0.202747 -0.187711 0.026589 0.081682 0.117386 0.121346 -0.097212 -0.069839 -0.123006 0.055716 0.124322 0.261316 -0.056686 0.127483 -0.001535 0.052123 0.077369 0.047809 -0.175584 0.219173 -0.144040 
percent -0.131237 -0.020604 0.114984 -0.062491 0.045718 -0.147369 -0.009660 -0.264594 0.094251 0.060808 -0.080218 0.015526 0.322688 -0.000964 -0.046183 0.143073 0.046843 0.061676 0.510332 0.289352 0.068010 -0.152222 -0.275830 -0.043317 0.139652 0.056849 0.129084 -0.097440 0.095268 -0.180585 -0.153705 -0.058255 0.036199 -0.046765 0.063072 -0.193944 -0.148520 -0.026148 -0.101518 0.135190 -0.043405 0.101177 0.089717 -0.056124 -0.350297 -0.261324 -0.201504 0.043702 -0.036889 -0.145287 -0.096243 -0.023323 -0.183526 -0.094617 0.024351 0.167191 0.089454 -0.046154 -0.062469 -0.159496 0.062810 0.171687 0.205866 0.086712 0.219237 0.002268 0.045068 0.095342 -0.143724 -0.067362 -0.271643 0.518433 0.060394 -0.115370 -0.018875 0.161742 0.004174 -0.001664 0.112972 0.181074 -0.110585 -0.111682 0.085849 -0.116298 -0.125375 0.282876 -0.040077 -0.202945 0.304469 -0.026550 0.304117 0.079278 0.173503 -0.047977 0.136634 -0.060614 0.039855 0.110632 -0.171387 0.230972 -0.030946 0.245231 -0.140164 0.126841 -0.055332 -0.026388 -0.000191 0.099300 0.079269 -0.216653 -0.178005 -0.012420 0.082339 -0.009120 0.205748 0.146401 0.063762 0.010725 0.053031 -0.138311 0.026521 -0.057915 -0.003989 -0.201654 0.090217 0.059049 -0.092969 -0.009307 -0.136551 0.056301 -0.128326 -0.065384 -0.036432 0.032448 0.203566 -0.245874 -0.241905 0.187631 -0.010692 -0.229941 -0.186821 0.071735 -0.137646 -0.041627 0.018097 0.366539 -0.042748 -0.234632 -0.178300 0.267516 -0.214950 -0.009029 -0.049875 -0.031929 0.011354 -0.115301 0.185067 0.181451 -0.003779 -0.078288 0.010381 0.202938 -0.307385 0.219607 -0.284363 -0.057127 -0.322185 0.041784 0.159896 -0.093939 0.033549 0.032756 -0.086007 -0.027674 -0.183293 -0.020333 0.062911 0.080575 0.293706 -0.024598 0.002585 -0.010184 0.161835 0.119148 -0.011105 -0.231065 -0.020373 0.011983 0.103855 0.115536 0.168119 0.118327 -0.183823 0.196129 -0.031510 -0.157334 -0.033515 0.154381 0.083976 -0.487163 0.015491 0.119290 -0.025344 -0.060791 -0.157240 0.041620 -0.074289 0.005439 0.080822 0.306779 0.099992 -0.176906 0.202572 -0.068486 0.041856 0.101965 0.274800 0.372062 -0.274545 -0.190725 0.044815 0.319627 -0.010941 0.056633 -0.075790 -0.001058 -0.185147 0.219767 0.165647 0.255051 -0.267721 -0.034804 0.000434 -0.056789 -0.052574 0.261362 -0.026148 0.136773 -0.348845 0.068839 -0.081199 -0.045032 -0.250905 -0.125127 -0.079204 -0.118773 -0.144656 -0.069767 -0.212673 0.147996 -0.071239 0.262636 -0.059855 -0.094114 -0.000199 0.074561 
have -0.071357 -0.190379 -0.084161 -0.002612 0.073978 -0.084038 -0.117649 -0.053452 0.031179 -0.136580 -0.096763 -0.234102 0.192457 0.271128 -0.098522 -0.006371 -0.001506 0.113985 0.337131 0.014991 -0.028702 -0.024839 -0.214837 0.095659 0.195742 0.169458 -0.115333 -0.240100 -0.067724 0.089392 0.213030 -0.029373 0.114190 -0.048488 0.155485 -0.130509 -0.065086 -0.017738 -0.068672 0.098229 -0.132768 0.010905 0.206167 -0.198690 -0.144625 -0.082154 0.070908 -0.060750 -0.151419 -0.179995 -0.196024 -0.030234 -0.096003 -0.249790 -0.002601 -0.063919 0.227591 -0.077874 -0.214591 -0.001432 0.119569 0.031741 -0.079224 -0.184833 -0.150110 0.280422 0.100069 -0.124540 0.170556 0.041541 -0.168334 0.301296 -0.094230 0.384790 0.007414 -0.181298 -0.135287 -0.037869 0.180678 -0.034443 -0.161956 -0.214767 0.193212 -0.068859 -0.056074 0.011764 -0.152339 -0.126100 0.272929 -0.134846 -0.078567 -0.208133 -0.090522 -0.128013 -0.033969 0.064647 0.155776 -0.011385 -0.014374 -0.028539 -0.175949 0.148891 -0.092668 0.099825 0.159462 0.071179 -0.259118 0.012095 0.018434 -0.049292 -0.032992 0.003902 0.075284 -0.095471 0.180111 0.166306 0.045737 -0.065922 0.066364 0.053307 -0.281673 -0.081811 -0.134598 -0.012761 0.169268 0.054624 0.353669 -0.254241 0.057659 0.267014 0.079852 0.186648 0.030271 0.344146 -0.116698 -0.077485 0.178544 -0.012811 -0.124366 -0.065901 -0.174006 0.216228 0.165812 0.303654 0.220622 0.097224 -0.030451 -0.017512 -0.041713 0.110477 -0.156121 -0.233482 0.004854 0.101580 -0.183465 -0.192989 -0.085757 0.065326 0.056274 -0.027548 0.074601 0.037333 -0.018891 -0.020363 -0.068941 0.034762 0.145392 -0.075849 -0.046172 0.214251 0.181466 0.109213 0.071131 -0.031799 -0.016491 0.161310 0.026269 0.135624 0.125925 0.134461 -0.135034 -0.135667 -0.046012 -0.243880 0.023106 0.148340 -0.141274 0.122786 0.116331 -0.136706 -0.037386 -0.039416 -0.042093 0.312483 0.134248 -0.067950 0.040486 -0.039407 0.141505 -0.129785 0.039279 0.161832 -0.266055 -0.293769 -0.082412 0.122973 0.169827 -0.077797 0.260639 -0.006570 0.173385 0.011234 -0.119937 0.077396 0.266276 -0.059907 0.205993 0.258288 0.112743 0.176555 -0.029898 0.017055 -0.250091 -0.114471 0.050581 0.105016 0.050668 0.020857 -0.000230 0.163292 0.169685 -0.020395 0.154493 0.021948 0.208541 0.236008 0.022642 0.017870 0.081148 0.072833 -0.066895 -0.109330 -0.057326 -0.083017 -0.142473 -0.217064 -0.079883 0.010577 -0.058343 0.104761 0.155514 0.106691 -0.086958 -0.172109 -0.036926 0.068536 
than -0.209078 -0.095497 -0.029085 0.153757 0.044657 -0.062680 -0.126309 -0.162485 -0.048530 -0.003868 0.072113 -0.327785 0.045280 0.045043 -0.097782 -0.123293 -0.220869 0.332028 0.260497 0.020926 0.231450 0.036372 -0.157463 0.100202 0.031047 -0.114893 0.242164 -0.189650 -0.138219 0.073742 0.088341 0.231378 0.105812 0.375412 0.022855 0.034756 0.006725 0.086722 -0.299144 -0.060299 0.040305 0.064852 -0.030279 0.086577 -0.017989 0.155922 -0.261493 0.026110 -0.125332 0.070740 -0.169914 0.172373 -0.176854 -0.358982 0.070884 0.023951 0.077595 0.105746 0.030057 -0.155538 0.328099 0.223647 0.015728 -0.169874 0.101907 -0.096392 -0.061322 0.184207 0.173729 -0.058400 0.086389 0.313509 -0.030641 -0.099714 -0.112543 -0.202218 0.216874 -0.185143 0.046858 0.100424 0.110842 -0.097153 0.100314 -0.056270 -0.028401 -0.059671 -0.295104 0.112186 0.209671 0.007521 0.090832 -0.010244 0.132324 -0.160416 -0.069339 -0.232263 -0.024024 -0.003135 0.163013 -0.097370 -0.219146 -0.152670 0.054142 -0.080382 0.023723 -0.062967 0.062883 0.068183 -0.083235 0.061050 0.210650 0.069614 0.202781 -0.083929 0.039303 0.130183 0.033417 0.215844 0.143359 -0.033578 -0.054299 0.131892 0.071525 -0.077268 -0.126724 0.114775 -0.076071 -0.181699 0.088465 0.033519 -0.134201 -0.100476 0.091180 -0.042871 -0.113022 -0.167922 -0.026241 0.063960 0.051811 -0.010660 0.126441 0.093266 -0.008458 0.027680 0.113973 0.043258 -0.073258 -0.237382 -0.018898 -0.138841 -0.094129 0.053448 0.043530 -0.028334 0.107727 -0.206990 0.177625 0.118519 0.056735 0.368613 0.127213 0.100299 0.019406 -0.205081 -0.086362 -0.153627 -0.047383 0.014030 -0.030632 -0.119998 0.164806 -0.127840 -0.092658 -0.090146 0.196099 -0.218736 0.274078 0.153307 0.264072 0.224123 -0.239714 -0.313846 -0.392369 0.087186 -0.173362 -0.072101 0.077929 0.213655 0.296191 0.131328 0.127757 0.316124 -0.068707 -0.026448 -0.056240 -0.037145 0.161020 0.186693 0.023331 -0.287093 0.022713 -0.069895 0.178980 -0.353604 0.018333 0.127988 0.099077 0.001724 0.179804 0.028995 0.134037 0.179525 0.260057 -0.117227 -0.004337 -0.006162 0.220670 -0.099605 -0.018904 0.084793 -0.095250 -0.029599 -0.119682 0.327556 -0.082873 -0.188025 0.216250 -0.171271 0.182793 -0.125772 -0.127181 -0.102419 0.006483 0.088924 0.156971 0.174460 -0.133160 0.162144 -0.285954 0.094363 0.067559 0.027276 -0.088501 -0.310717 0.011391 -0.330434 0.048043 0.023848 0.109857 0.156048 0.182067 -0.099757 -0.009556 0.018521 0.097258 -0.216928 
has -0.316913 -0.237098 0.148476 0.080582 0.065289 0.078990 -0.031110 -0.064269 -0.077693 0.110523 0.034287 -0.202301 0.074811 0.026261 -0.351739 0.071519 -0.324438 -0.104076 0.241173 0.143462 0.078782 -0.002576 -0.198681 -0.112299 -0.024974 0.001512 0.055782 -0.153309 -0.094933 0.024312 0.346298 0.214550 0.028588 0.105382 -0.155283 0.114000 -0.064592 -0.034480 -0.043776 0.227653 0.117082 0.094633 0.089178 -0.003628 0.137264 -0.129871 -0.243196 0.178846 -0.122515 0.333615 -0.079366 0.194071 0.101913 -0.171091 0.041652 0.131876 0.069630 -0.022811 -0.002579 0.162555 0.031744 0.084999 -0.029916 0.027344 0.150686 -0.040175 -0.017467 -0.058528 -0.005804 0.185745 0.123121 0.313688 0.100631 -0.120124 -0.197311 -0.095901 0.168048 0.036915 0.072633 0.276887 0.002266 -0.023239 0.303601 -0.169717 -0.093131 0.154057 -0.143597 0.035738 0.126529 -0.130630 -0.128083 0.063264 -0.068185 -0.061755 0.242219 -0.286797 0.016122 -0.043016 -0.078519 -0.226906 -0.039309 -0.010678 -0.227641 0.229332 -0.120778 0.268045 0.078969 -0.020904 -0.054126 -0.071760 0.248446 -0.135738 0.065105 0.212512 0.150118 0.061520 0.053715 0.002365 0.040821 -0.080338 -0.085875 -0.020203 0.093278 0.111608 0.103935 0.218974 -0.103882 -0.019326 0.019815 0.268928 -0.149894 -0.027461 0.228985 0.109462 -0.171078 -0.062598 0.053056 -0.139014 0.311717 0.044253 0.147379 0.142614 -0.002568 -0.172157 0.138125 0.232483 -0.050029 -0.155010 -0.097727 0.143282 -0.072582 -0.004879 0.007696 0.070092 -0.040669 -0.138737 -0.046325 0.097108 -0.137788 0.296188 -0.017415 0.223580 -0.059300 0.151706 -0.022417 0.049528 -0.112055 -0.044711 -0.051611 -0.243261 0.120201 -0.127795 0.157909 -0.055311 0.227929 -0.392419 0.139957 0.152439 0.144146 0.155740 0.032546 -0.195719 -0.325723 0.177518 0.125625 -0.012097 -0.122809 0.069738 0.053551 -0.066567 0.366484 -0.096553 0.003580 0.017621 -0.114910 -0.056262 0.051388 0.114163 -0.047596 -0.298524 -0.102795 -0.083332 0.205593 -0.269067 -0.148820 0.026784 0.117028 -0.063689 0.179630 0.163822 0.321258 0.086989 0.137451 -0.070388 -0.031555 0.067556 0.123740 0.223003 -0.240996 -0.142459 -0.235532 0.025440 -0.149895 0.312012 0.008698 -0.002444 -0.096607 0.081609 0.105367 -0.013597 0.107029 0.016398 -0.021888 -0.036284 0.108823 0.130972 0.042938 0.008618 -0.226889 -0.023670 0.018828 0.268199 -0.228657 -0.108010 0.002433 -0.187985 -0.064547 -0.161184 -0.018939 -0.120198 0.016542 -0.073871 -0.010143 -0.046355 0.196187 -0.011346 
more -0.185056 -0.009344 -0.050671 0.058868 0.171812 -0.203556 -0.221670 -0.278838 0.042269 -0.107305 -0.013514 -0.447599 0.116591 0.199672 -0.209888 -0.124322 -0.147463 0.403921 0.468892 0.168163 0.184809 -0.093516 -0.114112 -0.012605 0.000231 -0.100421 0.228499 -0.048352 -0.258757 0.147353 -0.050304 0.100588 0.012403 0.377418 0.119459 -0.111725 0.045183 0.086775 -0.305723 0.166267 -0.002091 0.111544 -0.049585 0.238006 -0.184169 0.224526 -0.355514 -0.035356 -0.221301 0.101030 -0.135259 0.177449 -0.084866 -0.427383 0.145340 0.130934 -0.031910 0.139031 -0.050652 -0.174443 0.205374 0.104147 0.038308 -0.101520 0.153407 -0.077708 -0.097433 0.064524 -0.057252 -0.110221 0.011464 0.589162 0.114533 -0.164296 -0.099452 -0.193367 0.219886 -0.363524 0.113875 0.036635 0.185994 -0.059453 0.253520 -0.056380 0.007717 -0.080854 -0.349956 0.171812 0.378682 0.019322 0.165587 -0.029477 0.105020 -0.238933 -0.042177 -0.201514 -0.029118 -0.013138 0.067007 0.017430 -0.260989 -0.202733 0.056120 0.134450 -0.052446 -0.142704 -0.030317 -0.009349 -0.070609 0.110204 0.120369 0.066694 0.143625 0.045428 0.261449 0.127116 0.137239 0.366322 0.225882 -0.218333 0.022018 0.175372 0.071947 -0.123567 -0.098766 0.143049 -0.243655 -0.161195 0.222419 0.100625 -0.206375 -0.135243 -0.046598 -0.081244 -0.146607 -0.333220 -0.145399 0.229030 -0.042719 0.029521 0.059408 0.097650 -0.010624 0.002664 -0.006559 -0.066305 -0.157415 -0.256497 -0.011442 -0.103767 -0.025561 0.138341 0.128928 0.014879 0.242617 -0.034065 0.160316 0.131492 0.045818 0.341782 0.239250 0.098730 -0.092630 -0.188821 -0.118570 -0.475240 -0.069343 -0.137245 0.132816 -0.219326 0.058751 -0.135450 -0.209810 -0.051140 0.087608 -0.271239 0.313573 -0.003160 0.287953 0.234414 -0.103699 -0.325415 -0.360447 0.159412 -0.258716 -0.184014 0.185029 0.062635 0.209113 0.103858 0.108805 0.369535 -0.061152 0.025567 -0.017220 -0.006555 0.092438 0.269324 0.063711 -0.570121 -0.065081 -0.065261 0.121149 -0.542773 -0.021531 0.332288 0.211046 -0.030017 0.028136 -0.114776 0.313916 0.114351 0.321945 -0.120336 0.091641 0.029532 0.402601 -0.037081 0.023600 0.052868 -0.162811 0.102215 -0.093780 0.250370 -0.137784 -0.156256 0.197195 -0.107596 0.284765 -0.153698 -0.166002 -0.117295 -0.028733 0.062982 0.019713 -0.005995 -0.115014 0.149467 -0.391026 0.071130 0.148592 0.205998 -0.251456 -0.438600 -0.202841 -0.370066 0.140489 0.041776 0.257019 0.212308 0.149083 -0.156061 0.088788 -0.072133 0.124367 -0.258016 
are 0.010748 -0.067922 -0.002642 -0.162164 0.262544 -0.083779 -0.096205 -0.129915 0.267105 -0.089106 -0.005675 -0.069938 0.360043 0.486409 -0.038639 0.164777 0.307008 0.058390 0.237267 0.212838 -0.135265 -0.037234 0.079643 -0.097414 0.059363 -0.004236 0.150180 -0.030929 -0.116454 -0.013085 -0.287869 0.005952 -0.099759 -0.123871 0.342590 -0.335999 -0.006800 -0.087159 0.002486 0.141167 -0.251017 -0.152989 -0.097323 -0.186652 -0.212062 -0.095175 -0.005098 -0.297375 -0.239069 -0.202501 -0.088874 0.028340 -0.180235 0.096356 0.127059 -0.021468 0.030286 0.006608 -0.136216 -0.050144 0.185305 -0.172348 -0.044836 0.090462 0.158115 0.186549 -0.209390 0.066371 -0.270504 -0.142440 -0.400113 0.462318 0.246466 0.109252 0.047159 0.081938 -0.148025 -0.075944 0.201130 -0.001304 0.083480 -0.106477 0.172421 0.186166 -0.157919 -0.182632 -0.109514 -0.143764 0.427918 -0.079892 0.467053 -0.289947 0.001647 -0.077306 -0.171215 0.261916 0.134337 0.305478 -0.135935 0.339862 -0.110441 0.166152 0.081086 0.146229 -0.046259 -0.135843 -0.110332 0.024732 0.131338 -0.013349 -0.247845 0.109994 0.133961 -0.050284 0.278652 0.124571 0.020694 0.025783 0.142991 -0.136239 -0.138644 0.003588 -0.013472 -0.093465 0.186854 -0.036662 0.098714 -0.028090 0.119067 0.080400 -0.144600 0.066277 -0.258587 0.159153 0.199499 -0.170015 -0.191258 0.299835 -0.031770 -0.000271 -0.233420 0.251569 -0.054996 0.147407 0.009115 0.037840 -0.101613 -0.219891 -0.230044 0.028533 0.026199 -0.115528 0.053418 -0.069713 0.215277 0.016729 -0.007196 0.015703 -0.001058 0.037273 0.008760 -0.100554 -0.192169 -0.057020 -0.100615 -0.277920 0.131773 -0.266546 0.338477 0.066447 -0.085100 0.329948 -0.318311 0.051749 -0.189532 0.311192 0.210845 0.070688 0.009928 0.069759 0.045955 0.092080 0.476361 -0.197813 -0.278250 0.130011 0.099576 -0.214731 0.302724 0.095707 -0.320446 0.229751 -0.039755 0.181021 0.012816 -0.248193 -0.221218 0.091940 0.274916 -0.399576 0.219796 0.141203 -0.238803 -0.191682 0.101977 0.297446 0.127232 -0.052146 0.125257 -0.114965 0.202892 0.067058 -0.081630 0.210583 0.240167 -0.007669 0.442194 0.043925 -0.049209 0.226983 -0.022197 0.316099 0.087336 -0.220116 0.243953 -0.074733 0.091141 0.089028 0.040652 0.200670 0.059411 0.001657 -0.070105 0.102898 -0.186346 -0.115731 -0.040767 0.055817 -0.000029 0.179614 -0.209836 -0.035904 -0.141384 -0.401576 -0.312748 0.014429 -0.027455 0.167819 0.075732 0.123788 0.049987 0.284558 0.005751 -0.245792 -0.154896 -0.096244 
000 -0.059924 -0.029733 0.157825 0.144378 -0.102694 -0.019724 -0.030383 0.008387 -0.045875 -0.174695 0.134201 -0.142696 -0.105662 0.066613 0.188013 -0.005738 -0.072063 0.320609 0.154218 0.104120 0.232583 -0.175001 -0.069827 -0.057923 0.166298 0.322548 0.039614 -0.284861 -0.303393 0.164918 -0.062770 0.268792 0.190613 -0.073939 0.090871 -0.228041 0.040882 -0.141998 -0.283123 -0.115913 -0.022010 0.181142 -0.046259 -0.144267 -0.018834 0.048241 -0.083938 -0.063877 -0.041423 0.025928 -0.065039 0.235127 -0.088721 -0.327966 -0.065990 0.136317 -0.020022 -0.041353 0.012655 -0.191457 0.303036 0.145681 -0.048342 0.009676 -0.123983 -0.039923 0.025043 0.142617 0.229356 -0.012102 -0.073932 0.077017 -0.062429 -0.048745 -0.007406 -0.126156 0.333532 -0.235418 0.118036 0.031398 0.171309 -0.032419 0.116780 -0.178237 -0.141088 -0.251947 -0.252717 0.165000 0.294871 -0.019002 0.033408 -0.020325 0.093931 -0.026360 -0.068987 0.017779 0.102096 -0.133865 -0.208312 -0.158591 -0.034483 0.030457 0.241864 -0.139838 0.205801 0.090483 0.006195 -0.011379 -0.089233 -0.014576 -0.024732 0.080875 0.148952 -0.058633 0.139362 0.240584 0.062986 0.041678 0.114784 -0.026094 -0.012817 -0.015749 -0.022143 -0.186862 0.191070 0.044935 0.132485 0.012066 -0.008744 0.206509 -0.181931 0.154468 -0.089912 -0.026113 0.105081 0.010152 0.216967 0.017436 0.058217 -0.033352 0.291473 0.106976 -0.056862 0.126640 0.167983 0.185552 -0.167551 0.090155 -0.084350 -0.302702 -0.058734 0.083844 -0.137979 0.335549 0.023494 -0.321320 0.105684 -0.103543 0.150640 0.216844 -0.038375 0.011056 -0.237886 -0.172919 0.116094 -0.049771 0.182096 -0.001102 -0.054217 -0.301215 0.205127 -0.039070 -0.047751 -0.083002 -0.008990 0.035766 0.091686 -0.115073 -0.057201 0.289972 -0.072546 -0.121338 -0.122253 0.022076 -0.245694 0.010785 -0.046352 0.121354 0.289436 0.036252 0.071418 0.029214 -0.153679 -0.008981 -0.175938 -0.064836 0.232248 0.162207 0.117414 0.088069 -0.077876 -0.111401 0.027448 -0.125761 0.154250 0.012703 0.092270 0.049819 0.268581 0.163443 0.104000 0.065416 0.119071 -0.006173 0.176616 0.058334 0.274944 -0.003413 -0.107996 0.174190 -0.249603 0.087089 -0.087339 0.103030 0.045581 0.293052 -0.069177 -0.155399 -0.056032 -0.068374 0.031434 0.000237 -0.009296 0.171391 0.216485 0.010385 0.027413 0.141390 0.101562 0.071831 0.059996 -0.037665 -0.114766 -0.058570 0.105286 -0.256635 0.013862 -0.185281 0.204697 0.333585 0.009587 -0.049639 -0.063229 -0.199066 -0.169017 -0.042045 
it -0.064166 -0.132671 0.086242 0.181468 0.128918 -0.067338 0.011084 0.093025 -0.189502 -0.087943 0.106895 -0.091492 -0.074568 0.254687 -0.005142 -0.016179 -0.162249 -0.173965 0.263639 0.067583 -0.173764 0.091320 -0.047113 -0.173132 0.194678 0.174880 0.077292 -0.064607 -0.199128 0.226531 0.298743 0.161647 0.075042 -0.065115 0.152502 -0.424409 0.148110 -0.103345 0.096274 0.050862 0.084577 0.046089 -0.165554 0.013141 0.329348 -0.115200 -0.082084 -0.133731 0.121170 0.024368 -0.050725 0.131048 0.130178 0.024928 0.122487 -0.072959 0.076097 -0.080094 -0.071934 -0.074396 -0.071851 -0.185058 -0.062645 0.091226 0.000815 -0.040663 0.141803 -0.138573 -0.096355 0.025933 0.101998 0.329681 -0.103938 0.204594 -0.239544 -0.068848 0.064198 -0.118251 0.153060 -0.109775 -0.041709 -0.025162 0.460610 0.009821 0.122459 -0.072525 -0.211088 -0.093468 0.367772 -0.115619 -0.171108 -0.067150 0.002909 0.006694 0.277791 -0.138965 0.170071 -0.091516 -0.201427 0.117584 0.175646 0.099720 -0.020548 0.062260 0.178237 0.082228 0.039032 -0.337436 0.063878 -0.058403 0.147702 -0.108300 -0.077650 0.039462 0.113439 0.006677 0.047547 0.004414 -0.022367 0.285071 0.075433 -0.039980 0.014897 -0.162735 0.028525 -0.031383 0.020890 0.075084 0.185821 0.176950 -0.207371 0.145249 0.141046 0.023878 0.125426 0.056301 0.144820 -0.106294 0.218111 0.257867 0.041591 0.290215 0.027944 -0.014254 0.100813 0.044573 -0.212696 -0.174768 0.106815 0.083932 0.049534 -0.159458 -0.207368 0.187621 0.068265 -0.102606 -0.052738 -0.073133 -0.259076 0.264882 -0.004778 0.042111 0.002617 -0.111800 0.135514 0.107439 0.117169 -0.133416 -0.242594 0.007297 0.213037 -0.046694 0.260885 0.251964 0.186247 -0.031973 -0.082232 0.262716 0.009254 0.110179 0.026020 -0.101657 -0.134093 -0.168138 -0.089532 0.277908 0.189493 -0.080616 -0.007163 -0.260385 0.059424 0.006811 0.037519 -0.096919 -0.176244 -0.007841 -0.071225 0.126120 -0.054314 -0.065126 -0.134262 -0.029085 -0.047075 -0.179663 -0.102173 0.012963 0.097716 0.029514 0.141618 -0.069480 0.484810 0.105534 -0.189388 -0.244386 0.204476 -0.260018 0.381740 0.155727 0.033793 0.072998 -0.255220 0.141741 -0.004159 -0.117081 0.079955 0.187629 -0.008961 -0.108104 -0.057871 0.053831 0.166286 -0.078912 -0.013010 -0.167806 0.137325 0.039314 0.040983 0.022965 -0.142678 0.023803 -0.020207 0.042033 -0.210297 0.105442 -0.063055 -0.018055 -0.034506 -0.167070 0.003195 -0.036699 -0.053118 -0.049424 0.103461 -0.023315 -0.079463 0.097220 
state 0.031197 -0.139581 0.252197 -0.020009 -0.204765 0.298992 0.161067 -0.009094 -0.100831 0.143176 0.195848 0.237559 0.201390 -0.188036 0.197440 0.262045 0.116122 0.068086 0.059145 -0.009418 -0.135791 0.084748 -0.004024 -0.076303 0.216108 0.145231 0.029087 -0.309288 -0.016863 -0.013151 -0.095969 0.456150 0.022101 -0.095210 -0.151953 -0.090818 -0.031042 -0.167103 0.071594 -0.127991 -0.196687 -0.106031 -0.220606 -0.245543 0.132616 -0.145984 0.058565 -0.064403 -0.085229 -0.234913 -0.281794 0.280069 -0.183235 0.135594 0.051465 0.174469 0.027940 0.044699 0.163507 -0.015295 0.173692 0.187058 -0.144356 0.196573 -0.024440 0.015727 -0.131756 0.268781 0.105260 0.091360 -0.002916 0.101834 -0.115465 -0.053754 0.130885 0.232444 0.145619 0.244935 -0.021764 0.211469 0.129171 0.057260 0.430653 0.109021 -0.183742 -0.003491 -0.052911 0.153025 0.349533 -0.194917 -0.016994 0.069052 -0.046044 0.074868 -0.129654 -0.181481 0.068913 0.297843 -0.153587 0.049704 -0.008385 0.121994 0.141566 -0.121313 0.013563 0.138204 0.453152 0.180974 0.024874 -0.125755 0.182811 -0.044317 0.279563 -0.286350 -0.158128 0.068092 0.050703 -0.101684 0.014985 0.077298 -0.110763 0.027789 0.066990 -0.014879 0.089636 -0.108575 0.222751 0.209906 -0.123420 0.029246 -0.433182 0.002126 0.067838 0.052910 0.187073 0.037504 -0.012619 -0.127723 0.359911 -0.198461 0.173180 0.009904 -0.286381 -0.202076 0.233673 0.263651 -0.177175 -0.252709 -0.206302 -0.150631 -0.062041 0.170264 -0.231945 0.206959 -0.067515 -0.357264 -0.007265 0.036565 0.110862 0.418265 -0.267968 -0.023560 -0.232618 -0.114061 -0.087505 0.264317 0.079033 0.092475 0.014665 -0.099961 0.046303 0.262440 -0.126946 0.053507 0.221840 0.046135 0.244380 0.156148 0.076821 0.151010 0.036289 0.187844 0.110036 -0.040662 -0.080746 0.136361 -0.135384 0.211397 0.169455 0.117571 -0.075702 -0.027649 0.002160 -0.001185 -0.414917 -0.171145 -0.087679 -0.125645 0.021174 -0.039337 0.223351 -0.147261 0.017688 0.243810 0.350745 -0.248695 -0.116251 0.115372 0.288273 0.284311 0.435486 0.274598 -0.251190 0.085223 -0.044440 0.155929 0.344965 0.022479 -0.221017 -0.069211 -0.033101 0.078500 0.066162 0.235388 0.294463 0.005879 -0.069586 -0.093396 -0.011057 0.078552 0.041759 -0.137874 0.034312 0.191248 0.018808 0.217447 -0.184205 0.098765 0.126532 -0.022711 -0.260097 -0.378897 0.123305 -0.008490 0.270138 0.156530 -0.186856 -0.128966 -0.011650 -0.007451 -0.044384 0.111738 -0.010998 -0.048282 -0.220985 -0.053070 
we -0.037401 0.012996 -0.057546 -0.030232 -0.089815 -0.212028 -0.069462 -0.068387 0.012918 -0.122893 -0.028937 -0.184447 0.327835 0.091608 0.260750 0.016577 0.375865 0.347932 0.222273 -0.133773 -0.022521 0.054637 0.001943 0.113260 0.321133 0.107005 -0.004617 -0.307930 -0.044955 0.118487 0.013733 0.013417 0.157377 0.025182 0.282746 -0.187617 -0.045305 -0.042943 -0.064174 -0.036174 -0.199270 -0.076246 0.033303 -0.268469 -0.084097 0.064685 0.058682 -0.216285 0.075712 -0.471245 -0.141106 -0.158303 -0.318103 -0.175385 0.188740 -0.114603 0.084703 -0.152909 -0.280773 -0.319303 0.089073 -0.055152 -0.162548 -0.293171 -0.106972 0.214257 0.052394 0.148728 0.333160 -0.083120 -0.153377 0.255487 -0.157781 0.362006 0.195215 -0.062108 -0.189661 0.012505 0.070546 -0.020242 -0.111385 -0.314865 -0.054048 0.235318 -0.002638 -0.079903 -0.260606 0.067062 0.310443 -0.099639 0.047088 -0.115804 0.065949 -0.168999 -0.142597 0.008796 0.156996 0.106899 0.118164 0.033154 -0.104758 0.006925 0.036653 -0.037772 0.184295 -0.198813 -0.072366 0.138864 0.012146 0.000698 -0.119666 0.076527 0.109879 -0.314434 0.027275 -0.169657 -0.094147 0.026304 0.224727 -0.002321 -0.309001 -0.158388 -0.285898 -0.290889 0.093437 -0.108995 0.351496 -0.347248 0.071332 -0.057567 0.041836 0.119973 0.085302 0.053711 -0.021406 -0.118460 -0.105475 -0.066345 -0.237561 -0.111040 -0.286333 -0.076339 -0.086194 0.333694 0.013723 -0.005307 -0.057655 -0.122719 -0.035817 -0.023846 0.011723 -0.096252 -0.145363 0.072244 -0.054004 -0.267900 0.078628 0.033707 0.124073 0.158589 0.013241 -0.048745 0.033123 -0.168294 0.006841 0.084566 0.277563 -0.320510 -0.023229 0.410972 0.177772 0.179859 -0.167087 0.059265 -0.103538 0.216998 0.015574 0.272764 0.124142 -0.038619 -0.278218 -0.098452 -0.108713 -0.353680 -0.107058 0.142059 -0.021572 0.243407 0.058485 -0.172227 -0.361737 0.160103 -0.055365 0.378623 0.120602 -0.017746 0.040982 -0.071100 0.028759 -0.048715 0.226200 0.198094 -0.398182 -0.254519 0.183045 0.037348 0.044437 0.075681 0.089262 -0.004698 -0.031552 0.116659 -0.140359 0.105803 0.182431 0.007095 0.303957 0.079592 0.198138 0.325806 0.091599 0.076762 -0.194588 -0.033288 -0.082219 0.005541 0.352398 -0.138560 0.064167 0.180464 0.083257 0.013533 0.103599 0.092465 0.173770 0.154884 0.025991 0.006986 0.056867 0.083502 0.029905 -0.367398 0.002295 0.143022 0.169073 -0.207735 -0.156115 0.116995 0.107643 0.122115 0.187201 0.139360 -0.097843 -0.113427 -0.112421 0.077476 
by -0.178204 0.033530 0.235897 -0.139760 -0.025961 -0.057467 -0.152235 -0.142251 0.188474 -0.006287 -0.043315 0.188889 0.141012 -0.017474 0.003039 0.139409 0.155114 0.023130 0.324751 0.039356 0.071148 -0.084852 -0.191286 -0.043393 0.057838 0.065036 0.065188 -0.022624 0.138893 0.033115 -0.062086 0.022470 0.096500 0.025845 -0.118942 -0.059642 -0.018511 0.027199 -0.126059 -0.002724 -0.018194 0.064953 0.051183 -0.097666 -0.380605 -0.139872 -0.062334 0.148287 0.169451 -0.162835 -0.161427 -0.055734 -0.070863 -0.068638 -0.008166 0.307415 0.052894 0.044215 0.078757 0.150779 -0.113308 -0.016253 0.085589 -0.029221 0.049753 -0.089924 -0.194799 0.029314 0.056701 -0.022935 -0.084488 0.202256 0.173824 -0.005414 0.035419 0.297285 0.149105 0.199174 -0.005820 0.055174 -0.111348 0.085494 -0.069957 -0.057143 -0.061317 0.377593 -0.106071 0.040268 0.122649 -0.116612 0.002785 0.081871 0.093017 -0.055180 -0.017406 -0.104240 0.083853 -0.023012 -0.204654 0.039265 -0.011409 0.182502 0.000394 -0.007204 0.057791 0.059025 0.202018 0.048579 0.146681 -0.164052 -0.176159 -0.199984 0.118352 -0.039372 0.021786 -0.027965 -0.262099 0.056652 0.078547 -0.042130 0.145177 0.045711 0.069510 -0.005877 -0.048331 -0.023382 -0.015292 -0.124309 -0.006689 -0.003457 -0.243153 -0.222864 -0.043429 0.123482 -0.085128 -0.158333 -0.075871 0.107938 -0.029929 -0.178861 -0.014596 -0.036860 -0.206968 -0.082473 -0.143738 0.010022 -0.024634 0.047259 -0.173648 0.236320 -0.180120 0.145311 0.008013 0.073326 -0.005695 -0.082892 0.137875 0.063242 0.082030 0.114311 -0.006171 0.163457 -0.099463 0.168369 -0.172076 0.070119 -0.174010 -0.098926 0.018787 -0.064160 0.074591 0.147263 -0.011060 -0.072402 -0.204514 0.027092 0.030934 -0.061801 0.258010 -0.103129 -0.124321 -0.037201 0.041466 0.138169 0.020060 -0.233997 -0.153394 -0.073393 -0.168742 -0.085486 -0.024447 0.088982 0.086655 0.161706 -0.247105 0.113223 0.099460 -0.066193 0.085489 -0.283030 0.011680 0.159250 0.116144 0.113199 0.007757 -0.012683 -0.025435 0.157351 -0.100422 0.036257 -0.063493 -0.032854 0.171422 0.039542 -0.010108 0.090199 0.104576 0.252123 -0.239502 -0.149553 0.015650 0.124521 -0.095357 0.192964 -0.062413 -0.065138 -0.149100 0.039278 0.118941 0.200246 -0.154221 -0.118722 0.180762 0.032669 0.054150 0.131367 -0.161719 0.167917 -0.180051 -0.181867 0.108799 -0.081108 -0.079569 0.105847 0.076352 -0.080127 -0.132480 -0.144937 -0.081779 0.172933 -0.019675 0.194191 0.028586 -0.068197 0.098346 -0.037980 
was -0.062439 -0.082493 0.143293 0.377489 0.324010 0.130788 -0.053928 -0.096504 -0.095882 0.105862 0.107127 -0.205229 -0.050303 -0.279318 0.124808 0.245487 -0.099669 -0.098678 0.432630 -0.243296 0.133446 -0.018132 -0.091342 0.154768 0.233197 0.351284 0.050425 -0.346780 0.255788 0.242734 0.134799 0.034736 -0.072104 0.153025 -0.013058 0.044083 0.315710 -0.252293 0.081740 -0.137877 0.120499 0.262930 -0.084326 0.109788 0.243000 0.306089 0.023272 0.065229 0.131292 0.268478 -0.009869 -0.034913 0.010688 -0.029717 -0.181047 -0.110710 0.199996 -0.027826 -0.004933 0.213138 -0.012915 -0.137652 -0.096529 0.248649 -0.133513 -0.103302 0.082806 -0.065414 0.002382 0.229820 0.140100 0.216189 -0.000088 -0.085170 -0.237792 -0.089989 0.116267 0.063750 -0.233814 0.126677 -0.056514 0.048320 0.232506 0.008767 0.011787 -0.105261 -0.087700 -0.135195 0.201917 -0.173826 -0.329474 0.247654 0.015383 -0.039583 0.060719 -0.116527 0.058156 -0.170238 -0.136067 -0.056755 -0.115077 0.242884 -0.181892 -0.122539 -0.064594 -0.068332 0.239629 -0.220508 -0.026927 0.397769 0.183966 -0.317879 0.220873 0.053629 0.081618 -0.055901 -0.116363 0.036561 -0.152742 0.260849 0.234129 -0.025421 0.006494 0.109780 0.330055 0.248328 0.045373 0.259133 0.036456 0.013076 -0.006405 0.228994 0.016508 0.063762 -0.002458 0.005657 0.007849 -0.208594 0.384916 0.075225 0.208140 -0.217700 -0.387173 -0.231849 -0.008419 -0.151529 -0.264351 0.031206 -0.033881 -0.183111 0.024499 -0.117217 -0.319371 0.416758 0.062933 -0.315537 0.022224 -0.169114 0.117396 0.086602 -0.023639 -0.017256 -0.010677 -0.169221 -0.048867 0.465742 0.167137 0.057787 -0.160040 -0.183784 0.030614 -0.188113 0.120586 -0.221506 0.155582 -0.419917 0.328714 0.066330 -0.049107 -0.148966 -0.109038 0.036180 -0.225410 0.094394 0.121024 0.336684 0.057127 0.057566 -0.020199 -0.065407 0.052088 0.036867 -0.065538 -0.342829 -0.013145 -0.086352 -0.000795 0.099325 0.007777 -0.098877 -0.024257 -0.115214 0.232833 -0.144181 0.061836 -0.036919 -0.118243 0.027626 0.031604 -0.103079 0.228432 0.165141 0.206639 -0.054221 0.084386 -0.051652 0.151521 0.260055 -0.156869 -0.397874 -0.045657 0.143707 -0.026297 0.025177 0.073483 -0.045197 -0.075995 -0.308860 0.048095 0.256097 0.255748 0.105587 0.130450 -0.100196 -0.045721 0.003742 0.035127 -0.042233 -0.105245 -0.208681 0.121709 -0.066724 -0.272571 0.233638 -0.064111 -0.036773 0.124442 -0.204930 -0.174269 -0.188247 -0.044302 -0.060373 -0.286673 0.052573 -0.006251 -0.025978 
not -0.186574 0.003933 0.196354 0.037160 0.190177 -0.080170 -0.059531 -0.022509 0.237004 -0.142561 0.240360 -0.050332 0.127137 0.413062 -0.045780 0.055683 0.364133 -0.189014 0.256791 -0.025592 -0.071845 -0.087785 0.191899 -0.134762 0.258176 0.179265 0.021696 -0.116744 -0.051849 0.108227 0.418560 0.005789 0.144387 -0.013902 0.245846 -0.012251 0.079106 -0.092565 0.097037 0.020003 -0.192894 -0.062120 0.084193 -0.353710 -0.013402 -0.162264 -0.060321 -0.111799 0.137206 -0.016429 0.011083 -0.304744 -0.212690 0.063785 0.096898 -0.079739 0.001976 -0.364189 -0.048398 0.080910 -0.022309 -0.317378 -0.138180 -0.147475 0.088830 0.031585 -0.111614 0.014037 0.005596 0.130774 -0.066939 0.200599 0.278718 0.119251 -0.136332 -0.049931 -0.039518 0.176794 0.127032 0.031635 -0.268207 -0.150792 0.235638 0.134823 -0.127606 -0.042918 0.008434 -0.092202 0.257758 -0.187937 0.023893 -0.107813 0.072712 -0.055522 0.283183 0.201562 0.345640 -0.141281 -0.196206 0.006012 -0.041046 0.284760 -0.246568 0.058938 0.056659 -0.002740 -0.080474 -0.243460 0.152103 -0.063410 -0.157113 -0.149908 0.269801 0.034757 0.259281 -0.051620 -0.217243 -0.194853 -0.001753 0.153983 -0.209276 -0.389019 0.035720 -0.083573 -0.018287 0.060031 0.069312 -0.240799 -0.008746 -0.122918 -0.065536 -0.011651 0.006580 0.095233 -0.013350 0.014191 -0.050763 -0.017598 0.205592 0.174274 0.000225 0.238376 -0.109209 0.208562 -0.226172 0.084233 -0.038989 0.110636 -0.197439 0.041143 0.146368 -0.193934 -0.220748 0.055018 0.002552 -0.116571 0.046786 0.080261 -0.236120 0.036698 -0.030807 0.179662 0.007898 -0.000071 0.018703 0.309873 0.186706 -0.296907 0.004020 0.058091 0.148902 0.158022 0.021702 -0.036354 -0.092274 0.030836 0.038498 0.291523 -0.136374 -0.244429 -0.156192 -0.133944 -0.014936 -0.334045 0.060352 0.301259 -0.135384 0.032358 -0.014674 -0.467893 0.035550 -0.008398 0.120020 0.047732 -0.141096 0.064234 -0.026337 0.190872 0.077144 0.034463 0.154363 0.164351 -0.116794 -0.115715 0.097945 0.011379 0.187408 -0.052221 0.018282 -0.000183 0.249269 -0.064356 -0.028515 0.077871 0.213041 -0.004339 0.284330 0.196425 -0.128079 0.107203 -0.274374 -0.011328 -0.054367 -0.227260 0.149800 -0.127802 -0.024238 -0.153211 0.044118 0.314267 0.274241 0.226617 0.225748 0.019301 0.083789 0.026251 0.116205 0.030397 -0.166065 -0.059610 0.071335 0.013821 -0.200723 0.031436 0.034307 -0.142112 0.070330 -0.127852 0.061161 -0.005121 0.106371 0.100665 0.005560 -0.167587 0.278447 0.018634 
" -0.160584 0.108163 0.270943 0.115779 0.401657 -0.177084 -0.127007 -0.291486 0.235498 -0.050348 0.116687 -0.416367 -0.113415 0.020438 -0.014573 0.216011 0.126401 0.017715 0.674765 -0.303032 0.262142 -0.170780 0.006977 -0.023249 0.180877 0.124963 0.357579 -0.229167 0.338839 0.110488 0.243733 -0.130195 -0.004224 0.060155 0.355630 -0.121228 0.212577 -0.013940 -0.168018 0.032721 -0.038354 0.074627 0.027582 0.089677 -0.130521 0.303623 -0.151862 0.114970 0.249535 0.129168 0.012708 -0.350438 -0.066956 -0.190292 -0.296151 -0.116994 0.190773 -0.016872 0.017713 0.136377 -0.027776 -0.079096 0.180976 0.068324 -0.005372 -0.221227 -0.180672 -0.108737 -0.016421 -0.107057 0.192181 0.527348 0.373128 -0.126493 -0.177074 -0.218830 0.372970 -0.172875 -0.218433 0.139086 -0.196827 -0.017940 0.003995 -0.282689 0.121448 -0.107565 0.008685 -0.359938 0.325149 -0.063433 0.171862 0.371948 0.253505 -0.078848 0.312578 0.088617 0.109764 -0.344884 -0.156527 0.054568 -0.066508 0.193958 -0.190357 0.013954 -0.094600 0.011545 0.050323 -0.312867 0.108848 0.333436 -0.133431 0.009889 0.142673 0.214989 0.471766 0.216569 -0.114897 0.025582 -0.343925 0.200149 0.424916 -0.010905 0.208489 -0.091987 0.048119 0.211304 -0.232725 -0.037954 0.029935 -0.131043 -0.165074 -0.277137 0.046991 -0.056273 0.004331 -0.266483 -0.144549 0.286788 0.100421 0.217325 0.256724 0.024825 -0.281003 -0.167898 -0.337379 -0.041076 -0.243601 0.412755 0.049871 -0.219268 0.103377 -0.260215 -0.337489 0.157114 0.374511 -0.190203 0.264922 0.017589 -0.100931 0.021671 -0.005408 0.026170 0.055834 0.075994 0.029784 0.161524 -0.150795 0.008503 0.113542 -0.312711 0.147109 -0.275038 0.100438 -0.349405 -0.183632 -0.121513 0.180777 0.138743 -0.071811 -0.297011 -0.188014 -0.020782 -0.138006 0.165609 -0.252537 0.136755 0.282212 -0.114667 -0.002275 -0.103573 0.092273 0.216349 -0.104935 -0.177649 -0.058309 0.101791 0.122435 0.168308 0.000445 -0.406276 0.029074 0.242385 0.061158 -0.430315 0.181796 0.083839 -0.107257 0.038883 -0.199126 -0.014534 0.022556 0.057944 0.529094 0.016192 0.056565 -0.320097 0.284500 0.342940 -0.226989 -0.231084 0.003486 0.304503 0.229417 0.038159 0.056699 -0.135540 -0.048967 -0.120841 0.076026 0.275175 -0.187818 0.115799 0.141392 -0.063044 0.018687 -0.104902 -0.035244 0.332764 -0.345363 -0.014095 0.155701 0.127770 -0.377675 0.036938 -0.125152 -0.158012 0.243764 -0.082381 -0.215040 0.001122 -0.134903 -0.004753 -0.105361 0.082462 0.261925 -0.151233 
( -0.159571 -0.054293 -0.150731 -0.328092 -0.144012 0.051226 -0.219325 -0.318922 -0.202139 -0.146109 0.151762 -0.162768 0.258593 0.136236 -0.160843 0.066661 -0.133453 0.043648 0.428130 -0.085108 -0.190646 0.323234 -0.207275 0.297284 -0.048083 0.294319 -0.273690 -0.211678 0.237876 0.293451 0.253563 0.064987 0.081356 -0.309257 -0.166167 -0.101328 -0.132388 -0.227353 -0.112395 -0.188113 -0.175232 0.224798 0.108757 -0.025446 -0.191384 -0.046694 0.125256 0.283660 -0.435753 0.015716 -0.363693 0.205596 0.312265 -0.105868 -0.027704 0.392688 0.056915 0.042738 -0.086970 0.171044 0.283489 0.018874 0.122793 0.040255 -0.208833 0.402292 0.157065 -0.592540 0.345414 -0.132259 0.194027 0.267358 -0.050455 0.513202 -0.300142 -0.027116 -0.047159 -0.045022 -0.191326 -0.047837 -0.139831 -0.079899 -0.385168 -0.020446 0.033931 -0.058849 0.025829 -0.295274 -0.007987 0.092114 0.057718 0.091332 -0.332025 -0.258720 -0.510278 0.098026 -0.333413 0.170264 0.072844 -0.052457 -0.155595 0.460691 0.197465 -0.203977 0.174232 0.357551 -0.286887 0.189624 -0.070252 -0.051627 0.027789 0.138521 0.235135 0.033824 0.048075 0.489023 -0.048471 -0.011896 0.103187 0.006158 0.028160 0.089385 -0.095810 0.064752 0.271888 -0.039380 0.731660 -0.062614 0.440581 0.331748 -0.288841 0.050639 0.175458 0.568527 -0.334921 -0.318382 0.469206 0.108083 0.073324 0.010398 -0.093524 0.312129 0.375976 0.119139 0.442552 -0.396715 -0.068549 -0.062819 0.070929 0.038146 -0.142149 -0.521397 -0.161876 0.185871 -0.279098 -0.272662 -0.286050 -0.088906 0.008300 0.109857 -0.038153 -0.117491 0.001678 0.133627 -0.042642 0.161685 0.191639 0.188796 0.075589 -0.097974 0.117989 0.345263 0.084024 0.073153 -0.009437 0.189656 0.255050 -0.141800 0.446164 0.182972 0.055809 0.125661 0.038208 0.246926 0.063154 0.089948 -0.237084 -0.070145 0.286028 0.063289 -0.439133 -0.195747 0.409690 0.418966 -0.042399 -0.054482 0.180740 -0.188536 -0.108471 -0.444260 -0.265298 0.204947 0.078907 -0.262911 0.137394 0.119404 -0.246065 0.146489 0.146214 -0.453939 -0.397839 0.148939 -0.258678 0.094960 0.101792 -0.279649 -0.024738 0.022665 -0.133747 0.077936 0.233150 -0.070085 -0.185567 -0.080633 -0.154891 0.039390 -0.513333 0.237129 -0.222918 0.405663 0.112617 0.086161 0.188259 0.117704 0.072050 0.089971 -0.374826 0.090161 0.056061 0.126976 -0.253038 -0.012066 0.158110 -0.384160 -0.192188 0.014386 0.235054 -0.064319 -0.127238 0.283393 -0.208791 0.026085 -0.248402 -0.073106 -0.387449 -0.029871 
) -0.074208 -0.019438 -0.060421 -0.171100 -0.035568 -0.114638 -0.243256 -0.210186 -0.112288 -0.147154 0.029523 -0.247511 0.082357 0.186276 -0.060989 0.001522 -0.019960 0.127487 0.354098 -0.109026 -0.012743 0.140193 -0.195173 0.209729 -0.003921 0.274231 -0.178292 -0.202629 0.136172 0.181711 0.173144 -0.018757 0.104026 -0.188886 -0.124183 -0.132949 -0.022447 -0.182059 -0.118380 -0.152181 -0.045112 0.216994 0.064614 0.007500 -0.163587 0.095106 0.193139 0.110162 -0.220796 -0.078418 -0.276579 0.160377 0.194724 -0.178189 -0.142611 0.230914 0.065630 0.048319 -0.011788 0.077535 0.212929 0.028636 0.062919 -0.003912 -0.299047 0.151340 0.103924 -0.386732 0.213337 -0.203171 0.181442 0.226908 -0.035274 0.303675 -0.116411 -0.148423 0.074526 -0.136750 -0.068198 -0.102183 -0.087834 -0.056629 -0.132489 -0.143502 0.094922 -0.126392 -0.051561 -0.116903 0.037829 0.030756 0.009648 0.095223 -0.122939 -0.125477 -0.246088 0.041400 -0.161233 0.081574 0.053906 -0.037353 -0.144859 0.287084 0.076352 -0.172143 0.177773 0.190220 -0.169060 0.020087 -0.033441 0.062614 -0.057862 0.089497 0.127647 -0.015632 0.108579 0.350699 -0.070423 0.005887 -0.022957 0.042547 0.098416 0.079993 0.031269 -0.009424 0.277186 -0.019552 0.381823 -0.070343 0.360868 0.193172 -0.211459 0.040172 0.056321 0.377384 -0.270812 -0.235547 0.392894 0.089642 -0.062302 0.003648 0.016350 0.268774 0.271582 0.077499 0.192807 -0.315215 -0.116437 0.138891 0.117464 -0.066673 -0.142640 -0.291351 -0.086332 0.249644 -0.171789 -0.178569 -0.086185 -0.055421 -0.057307 0.073657 0.049252 -0.153164 0.063701 0.139680 0.008664 0.086768 0.077410 0.117516 -0.049914 -0.080041 0.008931 0.096515 0.070994 -0.034326 -0.097402 0.160133 0.169979 -0.061087 0.280989 0.175544 -0.004770 0.055044 0.006494 0.177000 -0.069737 0.064908 -0.137812 -0.048341 0.204728 -0.021864 -0.226345 -0.058463 0.187274 0.193305 -0.040618 0.015623 0.118841 -0.097110 -0.081512 -0.312929 -0.197209 0.124250 0.017064 -0.300159 0.068574 0.208702 -0.034544 0.130352 -0.003425 -0.310549 -0.150933 0.059291 -0.036467 0.143336 0.133332 -0.183853 -0.000784 0.047849 -0.034718 0.039069 0.122255 0.027721 -0.120068 -0.043873 -0.065893 0.061338 -0.280673 0.167743 -0.214414 0.256831 0.026517 0.018768 0.167874 -0.004550 -0.013190 0.022804 -0.200839 0.142357 0.147995 0.080086 -0.106810 -0.036022 0.071054 -0.223574 -0.181666 -0.044267 0.164675 -0.118257 -0.032436 0.280665 -0.113809 -0.030529 -0.194129 -0.074540 -0.198315 -0.062697 
from -0.253815 -0.014173 0.012114 -0.033243 0.375109 -0.212556 -0.032544 -0.080568 0.207246 -0.097215 0.033063 -0.186307 0.163219 0.394120 -0.208213 0.189778 0.118556 -0.217590 0.232766 0.035958 -0.147046 -0.093929 0.102480 -0.146319 -0.068041 0.134489 0.118176 0.015811 -0.014161 -0.037691 0.176532 0.001134 0.000004 -0.111286 0.208107 -0.288155 0.206949 -0.180307 -0.048524 0.224515 0.011464 -0.104324 -0.134118 0.139203 0.095137 0.008655 -0.095264 -0.193610 -0.005356 -0.010987 -0.079045 0.197994 0.114385 -0.099906 0.105038 -0.143937 -0.002981 0.000711 -0.074064 0.074493 0.049673 -0.095045 0.201965 0.151124 0.047549 0.104677 -0.125384 -0.182989 -0.448472 -0.137078 0.123368 0.372989 0.254660 -0.197049 -0.032257 -0.164225 0.066830 -0.116420 0.134229 0.093012 -0.023328 0.112791 0.510985 -0.023157 -0.076516 -0.265937 0.054358 -0.084508 0.231698 -0.100562 0.083063 -0.025722 0.050196 0.191735 0.479211 -0.028256 0.097614 0.150192 -0.018611 0.223191 -0.017075 0.162616 0.049143 0.210086 0.023185 -0.067608 0.009639 -0.201991 0.151755 0.087035 -0.105411 -0.054905 -0.070743 0.242305 0.362124 0.327027 0.022508 0.118883 -0.061428 0.100336 0.154941 0.022347 0.089341 -0.048509 0.274692 0.052249 -0.305571 0.109600 0.137000 0.059774 -0.195945 -0.062575 -0.251823 -0.092465 0.031852 -0.102604 -0.238653 0.283408 0.029743 0.269358 0.012158 0.230515 0.072756 -0.098519 -0.199134 0.085967 -0.155448 -0.048755 -0.103772 0.002404 0.091911 -0.229481 0.036721 0.149379 0.130014 0.122948 0.052076 -0.011861 -0.471401 0.053785 0.093805 0.011162 0.059786 0.212675 -0.021751 -0.145549 -0.227957 0.050619 0.028678 -0.153050 -0.064920 -0.033095 0.027696 0.168868 -0.063251 0.052128 0.052508 0.120785 -0.014025 0.193074 0.128571 -0.066469 0.028035 0.043301 -0.154832 0.169941 0.187324 -0.255293 0.129058 -0.088694 0.397470 0.009795 -0.032203 0.004662 -0.092917 0.020506 -0.262075 0.196694 -0.081043 -0.432546 0.106649 0.035125 -0.067226 -0.236026 0.093261 0.252939 0.125366 0.024848 -0.141499 0.054397 0.524543 0.017485 -0.013020 0.149021 0.051427 -0.154608 0.234028 0.085960 0.031775 -0.023361 -0.062339 0.310355 0.242136 -0.070941 0.153132 -0.058618 0.105230 0.218640 0.108647 0.117747 -0.222662 -0.088257 -0.032984 -0.101197 -0.174082 -0.001775 -0.055518 -0.041969 -0.196411 0.040773 -0.106886 0.198398 -0.185259 -0.226862 -0.289524 -0.069984 0.112452 0.035304 -0.025760 0.104790 -0.122582 -0.127046 -0.028441 -0.147474 -0.062638 -0.030661 
obama -0.338695 -0.087060 0.002151 -0.054086 0.264482 0.037323 -0.014993 -0.164876 0.133245 -0.109341 0.086034 -0.270506 0.122947 0.031973 -0.288893 0.132410 -0.301415 -0.184834 0.422575 -0.049791 -0.031240 -0.110363 -0.097674 -0.102858 -0.021175 0.130046 0.176900 -0.017263 0.068297 0.138139 0.173461 -0.088052 -0.093268 -0.117165 0.200290 0.003864 0.082491 -0.007424 -0.164603 0.193655 -0.028649 -0.038245 0.125017 0.163229 -0.076898 0.102084 -0.205154 0.253339 0.006579 0.218076 0.021036 0.063710 0.120134 -0.305074 -0.029110 0.043336 0.116239 0.027289 -0.121070 0.263583 -0.002005 -0.073631 0.325656 -0.024667 0.145136 0.106737 -0.117250 -0.293577 -0.125460 0.129486 0.119250 0.393966 0.292397 -0.138822 -0.166920 -0.085047 0.227394 -0.090977 -0.055849 0.077107 0.060340 0.199788 0.010926 -0.191855 0.011722 -0.088420 -0.107477 -0.200351 0.173604 -0.009449 -0.028292 0.127933 -0.052903 -0.138494 0.208115 -0.041495 0.036040 -0.173634 -0.143856 -0.120390 -0.074453 0.109750 0.059264 0.177758 -0.103577 0.136207 -0.187338 -0.069008 0.070174 0.103576 0.015977 -0.098067 -0.199866 0.390478 0.302384 0.233982 -0.072333 0.206814 -0.045174 -0.009317 0.150480 0.052075 -0.023282 0.083768 0.238919 0.275328 -0.200269 -0.109305 0.130975 0.251104 -0.071965 -0.109200 -0.056546 -0.041355 -0.178181 -0.187627 -0.129183 0.330141 0.013700 0.299216 0.128702 0.007667 -0.021209 -0.182838 -0.083705 -0.078310 -0.099121 0.070608 -0.038240 -0.034401 0.013424 -0.269873 -0.012873 0.178881 0.180191 0.024675 -0.016645 -0.023877 -0.153285 0.088032 0.106879 0.126671 -0.022559 0.115653 -0.039879 -0.135397 -0.106477 0.078489 0.154166 -0.337912 0.234056 -0.020617 0.162992 -0.020357 -0.027031 -0.214754 -0.025009 -0.127403 0.140146 0.107107 -0.056577 -0.187776 -0.218116 0.175594 -0.036309 -0.011586 0.138844 -0.184930 0.018325 0.077954 0.214004 -0.111543 0.073664 0.150582 0.060448 0.053594 0.063549 0.111617 -0.024060 -0.435705 -0.066584 0.083241 0.078768 -0.329945 0.053339 0.084188 -0.055380 0.120634 0.044045 -0.111933 0.024696 0.141267 0.219606 -0.012604 0.008056 -0.251914 0.149209 0.240118 -0.089611 -0.067305 -0.116438 0.182231 0.169241 0.163533 -0.006723 0.110490 -0.038521 0.023485 0.124911 0.107135 -0.096925 -0.058086 0.018204 0.063364 0.161684 -0.040886 -0.134065 -0.059061 -0.268691 -0.038860 0.068348 0.342181 -0.352631 -0.075006 -0.157589 -0.278457 0.153583 0.069937 -0.071592 0.084492 -0.094285 -0.123650 -0.107159 -0.095121 0.007186 0.035454 
with -0.058100 -0.042091 -0.037767 0.046885 0.182766 -0.276739 -0.172134 -0.073862 0.046767 -0.165815 -0.012632 -0.383916 0.083239 0.141941 -0.011020 -0.015652 0.117205 0.101620 0.302998 -0.203984 0.095617 0.045969 -0.107668 0.095506 0.127361 0.201286 0.003937 -0.168167 0.049987 0.092814 0.208462 -0.275228 0.081545 0.118274 0.075221 0.047902 0.123321 -0.148728 -0.022361 -0.011449 0.060274 0.162191 0.063456 0.011977 -0.031173 0.342341 0.063877 -0.025616 0.053026 -0.081334 -0.003591 -0.073708 -0.042718 -0.157897 -0.094380 -0.043275 -0.016258 -0.166185 -0.127089 -0.000393 0.071839 -0.088219 -0.009119 -0.197610 -0.217737 0.059890 0.157246 -0.132193 0.024835 -0.062972 0.087775 0.283108 0.017459 0.074851 -0.075947 -0.257274 -0.071332 -0.049171 0.003580 -0.052386 -0.103497 -0.188983 0.132595 -0.023352 0.157768 -0.141287 -0.212534 0.044582 0.155632 -0.141142 -0.026264 0.059087 0.097992 -0.187035 0.062738 -0.014823 -0.038938 -0.072401 0.111748 -0.082318 -0.207874 0.142441 -0.209149 -0.015477 0.067233 -0.121630 -0.165463 -0.073738 0.071255 0.328310 -0.051365 -0.013067 0.015434 -0.002155 0.184926 -0.017125 -0.100025 0.032923 -0.087004 -0.015118 -0.113881 -0.165931 -0.041677 -0.114909 0.296633 0.214899 -0.027868 -0.241503 0.171474 -0.071338 0.159247 0.147124 -0.046001 0.062053 -0.281544 -0.091767 0.011784 0.003532 -0.125635 0.065435 -0.085923 -0.040517 0.099341 0.072303 -0.134728 -0.177376 -0.100906 0.176133 0.164701 -0.065369 -0.051962 -0.109375 -0.090056 0.219347 -0.000281 -0.007708 0.107586 0.085126 -0.114915 -0.062581 0.098882 0.003679 0.200190 0.055977 -0.088617 0.087631 0.133625 -0.196626 -0.078818 0.038752 -0.075747 -0.177539 0.113450 -0.149467 -0.097567 -0.113149 0.037055 0.185292 0.032071 -0.028204 -0.131030 -0.028701 -0.229486 -0.025532 0.091807 0.061798 -0.042459 0.090723 0.040285 -0.158781 0.004305 0.032974 -0.046757 0.084756 0.196826 0.045266 0.024331 0.105103 -0.064045 -0.130809 0.006715 0.093107 -0.089237 -0.394770 -0.069645 0.272592 0.148454 0.076366 -0.115554 -0.159459 0.130870 0.024794 0.235038 0.152511 0.212223 -0.049612 0.115321 0.238739 0.030423 0.066507 -0.078078 -0.015799 -0.102101 -0.047674 -0.190880 -0.071294 0.138608 -0.082977 -0.008417 0.214652 0.108753 0.162329 0.146917 -0.080261 -0.086630 -0.018964 0.026279 -0.124990 0.000938 0.012151 0.126323 -0.009555 -0.189525 0.015619 -0.037411 -0.095256 0.141490 0.049848 0.090251 0.100247 0.112430 -0.066589 -0.212214 -0.154294 0.090566 0.075756 
as -0.210284 0.037979 0.139711 0.098963 -0.007354 0.019294 -0.063759 -0.149639 -0.028727 0.042486 -0.085175 0.109895 0.213484 -0.161434 0.100325 0.192800 0.150451 0.077669 0.336135 0.170801 -0.005194 -0.217464 -0.123478 0.045598 0.245939 0.296277 -0.096790 -0.203773 -0.126204 0.121441 -0.073182 0.209330 0.054297 0.138651 -0.083691 -0.080095 -0.009121 -0.148875 -0.034460 0.050077 -0.112984 0.205994 0.021474 -0.096851 -0.030610 -0.296644 -0.055576 -0.022495 0.075009 0.009879 -0.128025 0.206192 -0.032953 -0.202529 0.136816 0.209028 0.025310 -0.090752 -0.044633 -0.047331 -0.039529 0.060478 -0.171327 0.191607 0.119807 0.048496 -0.004318 0.239290 0.055506 0.179494 0.006438 0.111072 -0.081271 -0.036563 0.027526 0.223182 0.038363 0.094391 0.059035 0.170273 -0.084630 0.000634 -0.076649 0.107784 -0.228108 0.164846 -0.181788 0.140440 0.133525 -0.110428 -0.131515 0.013848 0.101420 -0.040664 0.100531 -0.195518 0.187372 0.137008 -0.227505 0.052795 -0.083249 0.173315 0.007379 0.053708 0.042844 -0.018852 0.234268 0.027152 0.040288 -0.273299 -0.010536 -0.275360 0.250445 0.011357 0.001596 -0.061052 0.014222 0.124280 0.239296 0.005745 0.018925 -0.100192 -0.111648 -0.018230 0.228831 0.024274 0.069643 0.162162 -0.084473 0.081601 -0.178143 -0.027850 -0.009705 0.006791 -0.014484 -0.095853 -0.096085 -0.172290 0.076701 -0.245612 -0.080518 -0.210530 -0.331596 0.036333 0.050312 0.174433 -0.080497 -0.184638 -0.290337 0.131468 -0.091466 0.104135 -0.142787 0.310886 -0.092767 -0.281889 0.120293 -0.035785 0.140599 0.110420 0.043272 0.135231 -0.350755 -0.038947 -0.128144 0.150213 -0.086044 0.057125 -0.068194 -0.032816 0.059210 0.104327 -0.111845 0.028768 0.006527 -0.126209 0.221326 -0.065552 0.195259 0.088804 0.045278 -0.146441 -0.017138 0.010153 0.023646 0.051039 -0.145989 0.136003 -0.064112 -0.008858 0.159720 0.052544 -0.031481 0.127494 -0.156699 -0.086029 0.062235 0.088725 -0.040460 -0.138555 0.067718 -0.087157 0.044802 0.053718 0.046019 -0.122349 -0.004894 0.026713 0.007810 0.287703 -0.062268 -0.046194 -0.125074 0.012189 0.166642 0.308922 0.125285 0.110822 -0.186012 -0.205739 -0.104710 0.139503 -0.233403 0.075273 -0.000728 -0.037981 -0.163303 -0.044133 0.146970 0.121505 -0.000864 -0.129392 0.161915 -0.016505 0.056470 0.169990 0.024131 -0.021837 -0.115452 -0.185703 0.082068 -0.064127 -0.101659 0.214228 0.095998 -0.211180 -0.174689 -0.295824 0.017062 0.097176 -0.059227 -0.024973 0.007044 0.013066 -0.049446 0.043721 
tax -0.100568 0.015302 0.159611 -0.069628 -0.156611 0.034839 -0.079368 -0.038094 -0.145254 0.070991 0.133878 0.146695 0.036490 -0.138040 0.017074 0.127090 0.054201 0.035932 0.218527 -0.261785 -0.112889 0.132126 -0.140532 -0.042580 0.195065 0.096955 0.062271 -0.082768 0.140500 0.235557 0.313705 0.290313 0.105243 -0.020423 -0.146784 -0.061915 -0.109724 0.069466 -0.026790 -0.067698 -0.064953 -0.067895 -0.027238 -0.056125 0.078243 -0.066510 -0.019205 0.226146 0.167759 -0.167315 -0.319830 0.091630 0.075043 -0.016737 0.039101 0.151955 0.158733 0.164938 0.185664 0.124256 -0.197828 0.018815 -0.068264 -0.088743 -0.127177 -0.019565 -0.197919 -0.067501 0.334716 -0.055938 0.285175 0.137744 -0.035044 0.289901 -0.008169 0.223496 0.184985 0.279641 -0.122615 0.029030 -0.169857 0.042854 0.085362 -0.016339 0.117678 0.233329 -0.176929 0.048007 0.224102 -0.153622 -0.274662 0.130468 -0.058566 -0.169849 -0.112056 -0.243272 0.033378 -0.002233 -0.076400 -0.068246 0.002407 0.061265 0.106668 -0.074190 0.165101 0.307127 0.302642 0.050760 0.075060 -0.165386 0.201850 -0.040647 0.020559 -0.086480 -0.176217 -0.049159 -0.142639 0.014666 -0.024627 0.254018 0.116071 0.176478 0.101684 0.017616 -0.252622 -0.047313 0.250261 -0.125005 0.091111 0.027218 -0.450208 -0.197420 0.302238 0.169853 -0.231478 -0.079077 0.213716 -0.092233 0.136120 -0.058059 0.080824 -0.003935 -0.154282 -0.167002 0.009159 -0.074969 -0.086034 0.021939 0.064220 -0.002140 -0.086570 0.036809 -0.260452 0.188783 -0.025184 -0.182526 -0.018794 0.071368 0.069472 0.443502 -0.130521 0.005914 0.084646 -0.055110 -0.023162 0.229851 0.026782 0.007397 -0.143487 0.107445 0.278725 0.167204 0.183083 0.075235 0.168123 -0.030553 -0.068595 0.071453 0.257089 -0.000708 -0.108411 0.011681 -0.224660 -0.041017 -0.018806 -0.019702 -0.019884 -0.002374 -0.310178 -0.079407 -0.209737 -0.044895 0.209774 0.149612 -0.392168 0.118013 0.148972 -0.314480 -0.129511 -0.041176 -0.031722 0.110120 -0.011215 0.077733 0.255196 -0.206722 -0.106343 0.201600 -0.013176 -0.058345 0.084059 0.296030 -0.156129 -0.105889 -0.038466 -0.168595 0.183357 0.138771 -0.024666 0.002488 0.066062 -0.164885 -0.084001 0.248605 -0.023654 0.037464 -0.043290 -0.146975 -0.082639 0.071359 -0.043763 -0.211785 0.216400 0.047017 0.322843 0.160197 -0.278772 0.122380 -0.079007 -0.069891 -0.037400 -0.144898 0.146369 0.250609 0.242376 0.053095 -0.078882 -0.138780 -0.150536 -0.003507 -0.020437 0.048045 0.195907 0.089963 -0.020555 -0.002112 
years -0.280607 -0.260940 0.066997 0.136615 0.030352 0.185599 -0.000084 0.088856 -0.000840 0.019518 0.290549 -0.055752 0.112377 -0.053362 -0.085682 0.047951 -0.298623 -0.060861 0.111519 -0.016901 0.002692 0.140147 -0.199493 -0.001364 0.164084 0.210246 0.218087 -0.202381 -0.067846 0.083229 0.136462 0.208111 0.101315 0.062335 -0.029927 0.060327 -0.103239 -0.080585 -0.085020 -0.055706 0.077270 -0.048931 0.063127 -0.160729 0.162215 -0.129637 -0.181408 0.154651 0.102164 0.121292 -0.000150 0.154712 -0.146914 -0.142431 0.063183 -0.060067 0.056216 -0.115665 -0.085617 0.163783 0.251978 0.036790 0.081570 -0.144304 0.139238 0.056474 0.060620 0.038200 0.260347 0.262424 -0.036232 0.144025 0.028610 -0.013462 -0.244835 -0.020024 0.067866 0.202277 0.046469 0.217547 -0.087554 -0.082094 0.056272 0.013296 -0.171128 0.072060 -0.276948 -0.004741 0.144634 -0.180274 0.050840 -0.031558 -0.016067 -0.130422 -0.017302 -0.071659 0.034274 -0.060180 -0.090019 -0.136147 -0.060796 0.185533 -0.051598 -0.046363 0.049040 0.115882 0.064844 0.126631 0.026035 -0.068077 0.104124 -0.013647 0.010265 0.105108 -0.035118 0.059330 -0.119241 -0.040309 0.074188 0.102000 -0.227870 -0.102473 -0.097855 0.059244 0.214002 0.239382 0.110119 -0.157894 -0.016757 0.153053 0.091696 0.165262 0.175513 0.066125 -0.071222 0.103348 0.015648 -0.162558 0.292022 0.010313 0.047612 0.005223 0.065414 0.012807 0.166880 0.245257 -0.023369 -0.201081 -0.168435 0.086610 -0.122652 -0.081219 -0.198904 0.194659 -0.037570 -0.225160 -0.032929 -0.010242 0.052672 0.221987 -0.083745 0.202871 0.014895 0.024631 -0.142773 0.208606 0.144361 0.025873 -0.077527 -0.080141 0.282108 -0.006769 0.203123 0.015458 0.124015 -0.140797 -0.034987 0.240089 0.045272 0.098508 -0.218259 -0.116606 -0.201796 -0.056531 0.083370 0.092535 -0.116841 0.151817 0.240500 0.000994 0.274826 -0.057373 -0.011611 0.049756 0.017103 -0.117119 0.151326 0.124066 0.106917 0.045849 0.106663 -0.029970 0.136303 -0.065035 -0.070758 -0.148335 0.000315 0.100906 0.285535 0.194217 0.050034 0.189016 0.051652 -0.077623 0.090364 -0.001856 0.135140 0.277416 -0.277258 0.100550 -0.199964 -0.042556 -0.155622 0.232609 -0.024569 0.045966 0.100741 -0.139480 0.015802 0.112300 0.134978 -0.016249 -0.031058 0.207875 0.288478 0.212854 -0.033653 -0.147019 -0.142555 0.143178 -0.021673 0.055203 -0.230421 0.000758 0.238589 -0.209431 -0.105692 0.009193 -0.014354 0.002826 0.048850 0.087353 -0.205905 -0.095437 -0.097731 0.058855 
i -0.080008 -0.298959 -0.084702 0.041231 0.049922 0.010448 -0.119395 -0.218296 -0.120939 0.047685 0.082582 -0.398176 0.166352 0.131119 -0.044233 -0.114446 -0.105645 -0.001703 0.432166 -0.043856 -0.023295 0.202816 -0.154285 0.296844 0.351428 0.195303 -0.118654 -0.389212 0.093460 0.125333 0.389243 -0.117808 0.005305 0.082971 0.020014 0.132429 0.172461 -0.144607 0.212945 -0.240593 -0.005582 0.263838 0.150408 -0.211226 0.128334 0.061474 0.165205 0.001677 -0.150238 0.079167 -0.131801 -0.069465 -0.116369 -0.119394 -0.147492 -0.035884 0.137175 -0.319315 -0.175626 0.096498 0.163812 -0.143795 -0.260397 -0.156935 -0.138970 0.183745 0.342806 -0.161927 0.180340 0.165277 0.122486 0.301647 -0.157054 0.290099 -0.344159 -0.272250 -0.147538 0.066062 -0.037035 -0.085185 -0.125495 -0.372851 -0.030748 0.018263 0.002733 -0.094676 -0.129059 -0.204925 0.091302 -0.065604 0.052731 -0.044935 -0.019354 -0.179374 -0.081521 -0.018854 0.113531 0.056814 0.186836 -0.051933 -0.265767 0.383568 -0.358953 -0.201110 0.035303 -0.009963 -0.239066 -0.154516 0.015681 0.121580 0.064379 -0.198667 0.352337 -0.039447 0.076644 -0.067526 -0.151194 -0.161846 -0.120799 0.128907 -0.265794 -0.322435 -0.111273 0.058398 0.407817 0.104168 0.341955 -0.211517 0.259874 0.112031 0.208745 0.180725 0.196816 0.342388 -0.202817 -0.147268 0.187850 -0.245166 0.196139 0.034046 -0.086060 0.141361 0.107994 0.258187 0.259238 -0.222071 -0.054381 -0.084469 0.020332 -0.042192 -0.078873 -0.389422 -0.324009 0.160862 -0.266620 -0.320317 -0.033065 -0.009230 -0.019081 -0.082656 0.165586 -0.045340 0.160011 -0.109469 -0.043616 0.428235 0.223509 -0.091911 -0.181978 0.212780 0.095647 0.010409 0.148196 -0.144265 0.071667 -0.191781 0.344459 0.300443 0.217366 -0.050404 -0.217395 -0.066585 -0.100960 -0.168607 0.231790 0.281266 -0.214291 0.307634 0.146378 -0.276905 -0.206640 0.072853 0.090937 0.039730 0.247969 -0.093212 0.050152 0.122806 -0.058896 -0.097094 -0.000456 -0.014658 0.008909 -0.428432 -0.102993 0.075776 0.045304 0.000547 0.296214 -0.219359 -0.034884 0.034904 -0.006572 0.122802 0.344579 -0.066420 0.068815 0.149058 -0.078240 -0.009693 -0.095105 0.004919 -0.284983 -0.182153 0.048089 -0.184871 -0.048814 -0.185471 -0.008609 0.413622 0.502899 0.282042 0.261575 -0.148538 0.036096 0.130727 0.064423 0.059586 -0.002349 0.012902 0.003803 -0.101003 -0.170373 0.005793 -0.063961 -0.185497 0.099481 -0.131491 0.035641 0.039483 0.091130 -0.045042 -0.348655 -0.045079 0.074624 0.097927 
president -0.522948 -0.067351 -0.140310 -0.103996 0.320860 0.100843 0.001513 -0.175802 0.167862 -0.099824 0.082160 -0.210967 0.302621 -0.071003 -0.369036 0.188263 -0.328071 -0.251305 0.403050 -0.001468 -0.053524 -0.132789 -0.036795 -0.047992 -0.111526 0.245655 0.057134 -0.001781 0.063538 0.190482 0.131906 -0.108909 -0.115366 -0.126147 0.178931 0.100547 -0.000907 -0.070129 -0.230470 0.337720 -0.072742 -0.072019 0.261957 0.195382 -0.074768 -0.013835 -0.308013 0.341606 -0.114177 0.392127 0.063998 0.099640 0.198978 -0.412083 0.087401 0.080743 0.015809 -0.083047 -0.197516 0.305262 -0.053634 -0.070033 0.387773 0.017134 0.290780 0.428818 -0.085730 -0.307458 -0.157999 0.285991 0.067661 0.345970 0.341620 -0.096923 -0.127957 -0.001992 0.047846 0.033009 -0.136492 0.181548 0.035265 0.211093 -0.201060 -0.067312 -0.199753 -0.031391 -0.031407 -0.159544 0.085904 -0.060219 -0.093042 0.079017 -0.201803 -0.226894 0.161402 0.021760 -0.066669 -0.088512 -0.140414 -0.107068 -0.204297 0.168815 0.144258 0.321251 -0.121737 0.147652 -0.257320 0.155644 0.050466 -0.017130 0.035747 -0.077905 -0.217912 0.566346 0.310403 0.213809 -0.080938 0.270923 0.097786 -0.115511 0.072039 -0.050972 -0.163781 0.163072 0.387085 0.446234 -0.059622 -0.091420 0.093747 0.390624 0.041247 -0.012053 -0.151820 -0.031532 -0.293703 -0.182319 -0.216895 0.248652 0.016677 0.247434 -0.066075 -0.219078 0.014717 -0.087394 0.037880 -0.000818 -0.006678 -0.058898 -0.250744 0.095580 0.069906 -0.302152 0.007803 0.262994 0.113679 0.003334 -0.153082 -0.066058 -0.101562 -0.044353 0.107373 0.217626 -0.150827 0.135784 -0.173672 -0.182302 -0.083519 0.107078 0.267159 -0.272330 0.185543 0.097751 0.120959 -0.053494 -0.011255 -0.306793 -0.009506 -0.298937 0.164066 0.086728 0.019959 -0.225059 -0.188200 0.254684 0.094430 -0.090762 0.054382 -0.243304 -0.036784 0.212066 0.274034 -0.205903 0.084333 0.411363 0.176543 -0.034016 0.101355 0.095825 -0.035013 -0.433651 -0.051589 0.071658 0.051353 -0.291273 0.080609 0.040747 -0.167134 0.063977 0.053404 -0.068428 -0.188445 0.112197 0.063861 0.073177 0.047774 -0.108195 0.069399 0.326843 -0.096080 -0.092668 -0.027368 0.099693 0.056840 0.144452 -0.174659 0.069880 -0.077918 0.105248 0.212539 0.123400 -0.081408 -0.056720 -0.028569 0.154262 0.170535 0.017205 -0.125470 -0.208572 -0.334254 0.009323 0.037251 0.501228 -0.371682 -0.035139 -0.128826 -0.375450 0.151190 0.138156 -0.068773 0.076758 -0.160971 -0.160432 -0.110534 -0.189461 -0.134292 0.110154 
year -0.060319 -0.004158 0.051589 0.204515 -0.198306 0.003706 -0.078109 -0.065012 -0.184752 -0.017408 0.038091 -0.091262 0.067661 -0.101418 0.309102 -0.047263 -0.025593 0.455433 0.240907 0.100835 0.177261 -0.051721 -0.230712 0.153720 0.272850 0.358162 0.061577 -0.344913 -0.175258 0.155340 -0.181537 0.258262 0.175167 0.012633 0.039321 -0.282771 -0.104153 -0.098870 -0.283161 -0.268322 0.006458 0.149451 -0.036136 -0.112853 -0.065081 -0.035344 -0.029879 -0.044275 0.014192 -0.182833 -0.232589 0.195604 -0.202656 -0.366106 -0.026923 0.066547 0.124200 0.001812 -0.010380 -0.312815 0.308801 0.227545 -0.107567 -0.046669 -0.078397 -0.078739 0.085436 0.237648 0.441200 -0.022118 -0.160225 0.187279 -0.248192 0.136689 0.067593 0.007823 0.230418 -0.136189 0.098678 -0.007595 0.005940 -0.110066 -0.152227 -0.036450 -0.153286 -0.022477 -0.347615 0.116868 0.315601 -0.030120 0.013062 -0.036628 0.048792 -0.102724 -0.254717 -0.034182 0.126615 -0.009552 -0.077825 -0.043123 -0.090966 0.064135 0.243875 -0.283660 0.229896 -0.027588 0.147105 0.111600 -0.151487 -0.139101 -0.013879 0.079894 0.130583 -0.232365 -0.095137 0.081675 0.010067 0.110228 0.176844 0.044441 -0.057285 0.027671 -0.107702 -0.223734 0.126994 -0.061025 0.399794 -0.044308 0.043650 0.131442 -0.200299 0.242586 0.090251 0.131350 0.159823 -0.079168 0.216773 -0.154963 -0.012990 -0.199182 0.099551 0.024105 -0.124381 0.148858 0.271480 0.142181 -0.118740 -0.138414 -0.140198 -0.109308 -0.167352 0.048426 -0.174439 0.373325 -0.061153 -0.469503 0.060681 -0.090201 0.336406 0.250290 0.022990 -0.015788 -0.215835 -0.229203 0.009892 0.038977 0.165257 0.036144 -0.145875 0.051361 0.261186 0.081874 -0.089798 -0.010162 -0.001853 0.045191 0.073447 -0.023810 0.209396 0.195968 -0.223757 -0.179734 -0.114997 -0.084618 -0.213674 -0.006024 -0.001396 0.170141 0.265869 0.100874 -0.136107 0.190089 -0.163058 0.022016 -0.140434 -0.155064 0.260518 0.013799 0.149851 0.030258 -0.043311 -0.084505 -0.028071 -0.107234 0.072518 -0.069798 -0.004930 0.109416 0.247622 0.124827 -0.153096 0.090956 -0.021330 -0.136682 0.184868 0.106889 0.283275 0.073470 -0.033414 0.134110 -0.014515 0.118364 -0.248539 0.178371 -0.031301 0.259381 0.027164 -0.180373 -0.078651 0.017292 0.005375 -0.113297 -0.016367 0.120350 0.281578 0.204900 -0.002060 0.193347 0.051177 0.101622 0.024495 -0.250606 0.014237 0.032836 0.137140 -0.358148 -0.144859 -0.181789 0.078751 0.307207 0.040760 0.112050 -0.127581 -0.093751 -0.315400 -0.044792 
million -0.027887 -0.042405 -0.008953 -0.103111 -0.058589 -0.067277 -0.081672 -0.166153 -0.089256 -0.039841 -0.067439 -0.062136 0.221387 0.001346 0.137996 0.086012 0.000960 0.171836 0.297194 0.053414 -0.070956 0.033411 -0.151509 0.071870 0.106445 0.337471 -0.060991 -0.130103 -0.097473 0.149770 -0.218317 0.041134 -0.078760 -0.151369 -0.063075 -0.217885 0.001297 -0.157331 -0.083499 0.018318 0.038786 0.150227 -0.042708 0.026377 -0.087860 0.066560 0.024406 0.028726 -0.073203 -0.027130 -0.149044 0.242447 0.136750 -0.109463 0.071018 0.271368 0.002971 0.147315 -0.162275 -0.013038 -0.020055 0.037059 -0.126012 0.128359 -0.074235 0.109714 -0.021265 -0.034844 0.137659 -0.071265 -0.051149 0.239424 -0.066962 0.125427 0.032234 0.147945 0.029641 -0.094209 -0.008401 -0.084817 0.109103 0.030656 -0.177703 0.005090 -0.045686 -0.025835 -0.268835 0.131327 0.222890 -0.038737 0.005402 -0.081044 -0.127695 -0.129755 -0.266792 -0.048074 -0.030793 0.166682 -0.131070 0.004279 -0.036458 0.087863 0.212739 0.003919 0.047885 0.095654 0.029814 0.089991 -0.033086 0.028660 -0.026755 -0.078895 0.043124 -0.032951 0.052804 0.033381 0.157110 0.105903 0.244918 -0.097536 0.107888 0.168507 -0.176562 -0.043681 0.308078 -0.056084 0.260030 0.064369 0.247609 0.224100 -0.179621 0.098446 -0.008712 0.183597 -0.034945 -0.205986 0.084733 -0.016843 -0.055540 -0.100206 -0.075661 -0.017148 -0.153247 0.027912 0.215591 -0.174284 -0.144126 -0.072372 -0.077586 -0.010245 -0.098943 0.065178 -0.011362 0.380527 0.006218 -0.174194 -0.093684 -0.148618 0.242118 0.168988 0.084156 -0.111763 -0.173412 -0.052312 0.085676 -0.145542 0.179942 -0.085539 0.022728 -0.070739 0.079279 0.217542 -0.055045 0.089713 -0.073417 -0.042101 0.148842 -0.212538 0.215562 0.189081 0.098030 0.066726 -0.005557 0.111338 -0.151693 -0.051255 -0.007947 -0.096852 -0.002392 0.126220 -0.295218 -0.069581 0.070057 0.181828 0.007314 -0.061653 0.053642 -0.084390 -0.047777 -0.220082 -0.121886 -0.044279 -0.064769 -0.141593 0.043941 0.153812 -0.086112 0.090817 0.050943 -0.167569 -0.174477 0.144700 -0.122622 0.073523 0.133921 0.047567 0.198042 0.052626 0.000056 0.034372 -0.009053 0.262875 -0.121379 0.084462 -0.037830 0.170182 -0.063096 -0.019928 -0.028212 0.097346 0.117162 -0.104115 -0.003518 0.082878 0.054567 -0.083555 -0.142532 0.001984 0.092480 -0.070510 0.096006 -0.009571 -0.038998 0.011189 -0.132233 -0.031179 -0.020502 -0.061158 0.185341 0.210728 -0.021315 0.029505 -0.095070 -0.048650 -0.255804 0.096001 
our 0.139800 -0.126467 0.141209 -0.151008 -0.234394 -0.233943 -0.034430 -0.054991 -0.153838 -0.043527 0.052610 -0.031722 0.091440 0.112730 0.152528 -0.076699 0.049551 0.197492 0.219628 0.171919 -0.029866 0.094070 -0.101595 -0.148063 0.326799 -0.024540 0.079458 -0.095507 -0.226613 -0.052194 -0.072555 0.143925 0.073884 0.021371 -0.118871 -0.170301 -0.033176 -0.018357 0.068895 -0.019769 0.058875 0.149550 -0.198301 -0.137325 0.075846 -0.066915 -0.028023 -0.127632 0.009259 -0.252576 -0.100092 0.208297 -0.160239 0.108337 0.121965 0.246625 -0.176077 -0.107448 -0.003459 -0.238220 0.015313 0.122657 -0.077358 -0.112527 -0.031704 -0.122785 0.196938 0.178535 -0.022461 -0.148838 0.029751 0.328649 -0.217772 -0.072903 -0.031531 0.038900 0.028296 -0.029574 0.163712 -0.009897 0.141336 -0.239275 0.511091 -0.035479 0.173824 0.063047 -0.298292 0.228879 0.426916 -0.048247 0.207659 0.011331 0.206165 -0.118964 0.026170 -0.366997 0.042916 0.190692 -0.027550 0.057559 0.011681 0.013749 -0.114390 -0.026130 0.096577 -0.041106 0.112922 -0.047447 0.131763 -0.107504 0.050529 0.000356 0.069379 -0.239430 0.022495 -0.192490 0.109336 -0.071796 0.061928 -0.101321 -0.136857 -0.099866 0.032738 -0.267766 -0.016381 -0.046065 -0.171792 -0.109070 0.019874 -0.028108 -0.168594 -0.127668 0.096785 -0.165709 -0.002924 -0.098878 -0.045350 -0.021011 0.046737 -0.168316 -0.032948 0.123196 -0.049453 0.005349 -0.016063 0.198027 -0.179040 -0.237874 0.176091 -0.024157 -0.077108 0.305339 -0.197219 0.062189 0.001627 -0.030832 0.207408 0.241245 -0.031547 0.309175 -0.006969 0.058456 -0.035789 -0.058693 -0.081207 -0.031086 0.002199 -0.266194 -0.094290 -0.072566 -0.012610 -0.117571 0.044898 0.105696 0.040374 -0.044793 0.019109 0.331902 0.179592 0.148175 0.008529 0.116472 -0.087255 -0.029946 -0.108697 -0.134126 -0.085667 0.298896 0.018701 -0.094333 0.030609 0.130474 -0.098594 0.083405 -0.135672 0.017885 -0.040339 0.200680 -0.078397 -0.104880 0.020991 -0.055247 -0.097958 -0.084592 -0.093506 0.065023 0.094113 0.121706 0.089432 0.221806 0.532860 0.038804 0.117955 -0.072179 0.062188 0.067905 0.437257 0.083289 -0.139100 0.120685 -0.228784 0.053534 -0.056925 0.119294 -0.063702 0.007941 0.074053 -0.137409 0.041855 0.023366 -0.021154 -0.003550 0.060898 -0.021003 -0.055722 0.068849 -0.038257 0.016392 -0.034169 0.093366 -0.026458 -0.168904 -0.159534 0.000403 0.221583 0.147670 -0.177233 -0.107475 0.277029 0.144319 0.091491 0.012883 0.050891 -0.051400 0.038368 0.104871 
